digraph Tree {
node [shape=box] ;
0 [label="cat1_combos <= 71.5\nmse = 180.168\nsamples = 14\nvalue = 37.214"] ;
1 [label="mse = 0.0\nsamples = 4\nvalue = 16.0"] ;
0 -> 1 [labeldistance=2.5, labelangle=45, headlabel="True"] ;
2 [label="is_paired <= 0.5\nmse = 0.21\nsamples = 10\nvalue = 45.7"] ;
0 -> 2 [labeldistance=2.5, labelangle=-45, headlabel="False"] ;
3 [label="mse = 0.0\nsamples = 7\nvalue = 46.0"] ;
2 -> 3 ;
4 [label="mse = 0.0\nsamples = 3\nvalue = 45.0"] ;
2 -> 4 ;
}
