digraph Tree {
node [shape=box] ;
0 [label="X[12] <= 0.5\ngini = 0.892\nsamples = 100000\nvalue = [9539, 1248, 3509, 1034, 233, 1212, 1689, 5311, 2125\n4105, 2218, 1571, 4510, 1924, 1857, 6557, 21774, 2525\n14004, 13055]"] ;
1 [label="X[0] <= 0.5\ngini = 0.927\nsamples = 64450\nvalue = [2957, 1246, 3507, 1034, 233, 1212, 1689, 5311, 2125\n4105, 2218, 1571, 4497, 1923, 1790, 5176, 6685, 2188\n6701, 8282]"] ;
0 -> 1 [labeldistance=2.5, labelangle=45, headlabel="True"] ;
2 [label="X[11] <= 0.5\ngini = 0.889\nsamples = 40907\nvalue = [2135, 11, 81, 127, 13, 135, 279, 1612, 511, 2173\n1316, 861, 3053, 1018, 1220, 4802, 5749, 1847, 6145\n7819]"] ;
1 -> 2 ;
3 [label="X[13] <= 0.5\ngini = 0.82\nsamples = 19445\nvalue = [2125, 2, 30, 0, 0, 0, 0, 93, 34, 10, 32, 42\n358, 454, 1079, 2243, 5663, 330, 4094, 2856]"] ;
2 -> 3 ;
4 [label="X[1] <= 0.5\ngini = 0.732\nsamples = 4793\nvalue = [2125, 2, 30, 0, 0, 0, 0, 93, 34, 10, 26, 14\n80, 30, 229, 499, 299, 34, 1086, 202]"] ;
3 -> 4 ;
5 [label="X[6] <= 13.5\ngini = 0.245\nsamples = 2449\nvalue = [2101, 0, 0, 0, 0, 0, 0, 0, 0, 0, 0, 0, 0, 0\n13, 0, 0, 0, 333, 2]"] ;
4 -> 5 ;
6 [label="X[10] <= 7.5\ngini = 0.002\nsamples = 1958\nvalue = [1956, 0, 0, 0, 0, 0, 0, 0, 0, 0, 0, 0, 0, 0\n0, 0, 0, 0, 0, 2]"] ;
5 -> 6 ;
7 [label="gini = 0.0\nsamples = 1849\nvalue = [1849, 0, 0, 0, 0, 0, 0, 0, 0, 0, 0, 0, 0, 0\n0, 0, 0, 0, 0, 0]"] ;
6 -> 7 ;
8 [label="X[8] <= 3.5\ngini = 0.036\nsamples = 109\nvalue = [107, 0, 0, 0, 0, 0, 0, 0, 0, 0, 0, 0, 0, 0\n0, 0, 0, 0, 0, 2]"] ;
6 -> 8 ;
9 [label="gini = 0.0\nsamples = 99\nvalue = [99, 0, 0, 0, 0, 0, 0, 0, 0, 0, 0, 0, 0, 0\n0, 0, 0, 0, 0, 0]"] ;
8 -> 9 ;
10 [label="X[4] <= 0.5\ngini = 0.32\nsamples = 10\nvalue = [8, 0, 0, 0, 0, 0, 0, 0, 0, 0, 0, 0, 0, 0\n0, 0, 0, 0, 0, 2]"] ;
8 -> 10 ;
11 [label="gini = 0.0\nsamples = 7\nvalue = [7, 0, 0, 0, 0, 0, 0, 0, 0, 0, 0, 0, 0, 0\n0, 0, 0, 0, 0, 0]"] ;
10 -> 11 ;
12 [label="X[7] <= 4.5\ngini = 0.444\nsamples = 3\nvalue = [1, 0, 0, 0, 0, 0, 0, 0, 0, 0, 0, 0, 0, 0\n0, 0, 0, 0, 0, 2]"] ;
10 -> 12 ;
13 [label="gini = 0.0\nsamples = 1\nvalue = [1, 0, 0, 0, 0, 0, 0, 0, 0, 0, 0, 0, 0, 0\n0, 0, 0, 0, 0, 0]"] ;
12 -> 13 ;
14 [label="gini = 0.0\nsamples = 2\nvalue = [0, 0, 0, 0, 0, 0, 0, 0, 0, 0, 0, 0, 0, 0\n0, 0, 0, 0, 0, 2]"] ;
12 -> 14 ;
15 [label="X[7] <= 11.5\ngini = 0.452\nsamples = 491\nvalue = [145, 0, 0, 0, 0, 0, 0, 0, 0, 0, 0, 0, 0, 0\n13, 0, 0, 0, 333, 0]"] ;
5 -> 15 ;
16 [label="gini = 0.0\nsamples = 311\nvalue = [0, 0, 0, 0, 0, 0, 0, 0, 0, 0, 0, 0, 0, 0\n0, 0, 0, 0, 311, 0]"] ;
15 -> 16 ;
17 [label="X[4] <= 0.5\ngini = 0.331\nsamples = 180\nvalue = [145, 0, 0, 0, 0, 0, 0, 0, 0, 0, 0, 0, 0, 0\n13, 0, 0, 0, 22, 0]"] ;
15 -> 17 ;
18 [label="X[10] <= 1.5\ngini = 0.585\nsamples = 79\nvalue = [44, 0, 0, 0, 0, 0, 0, 0, 0, 0, 0, 0, 0, 0\n13, 0, 0, 0, 22, 0]"] ;
17 -> 18 ;
19 [label="X[10] <= 0.5\ngini = 0.352\nsamples = 57\nvalue = [44, 0, 0, 0, 0, 0, 0, 0, 0, 0, 0, 0, 0, 0\n13, 0, 0, 0, 0, 0]"] ;
18 -> 19 ;
20 [label="X[5] <= 1.5\ngini = 0.231\nsamples = 15\nvalue = [2, 0, 0, 0, 0, 0, 0, 0, 0, 0, 0, 0, 0, 0\n13, 0, 0, 0, 0, 0]"] ;
19 -> 20 ;
21 [label="gini = 0.0\nsamples = 2\nvalue = [2, 0, 0, 0, 0, 0, 0, 0, 0, 0, 0, 0, 0, 0\n0, 0, 0, 0, 0, 0]"] ;
20 -> 21 ;
22 [label="gini = 0.0\nsamples = 13\nvalue = [0, 0, 0, 0, 0, 0, 0, 0, 0, 0, 0, 0, 0, 0\n13, 0, 0, 0, 0, 0]"] ;
20 -> 22 ;
23 [label="gini = 0.0\nsamples = 42\nvalue = [42, 0, 0, 0, 0, 0, 0, 0, 0, 0, 0, 0, 0, 0\n0, 0, 0, 0, 0, 0]"] ;
19 -> 23 ;
24 [label="gini = 0.0\nsamples = 22\nvalue = [0, 0, 0, 0, 0, 0, 0, 0, 0, 0, 0, 0, 0, 0\n0, 0, 0, 0, 22, 0]"] ;
18 -> 24 ;
25 [label="gini = 0.0\nsamples = 101\nvalue = [101, 0, 0, 0, 0, 0, 0, 0, 0, 0, 0, 0, 0, 0\n0, 0, 0, 0, 0, 0]"] ;
17 -> 25 ;
26 [label="X[6] <= 7.5\ngini = 0.816\nsamples = 2344\nvalue = [24, 2, 30, 0, 0, 0, 0, 93, 34, 10, 26, 14, 80\n30, 216, 499, 299, 34, 753, 200]"] ;
4 -> 26 ;
27 [label="gini = 0.0\nsamples = 263\nvalue = [0, 0, 0, 0, 0, 0, 0, 0, 0, 0, 0, 0, 0, 0\n0, 263, 0, 0, 0, 0]"] ;
26 -> 27 ;
28 [label="X[7] <= 9.5\ngini = 0.811\nsamples = 2081\nvalue = [24, 2, 30, 0, 0, 0, 0, 93, 34, 10, 26, 14, 80\n30, 216, 236, 299, 34, 753, 200]"] ;
26 -> 28 ;
29 [label="X[10] <= 1.5\ngini = 0.638\nsamples = 1292\nvalue = [0, 0, 11, 0, 0, 0, 0, 17, 25, 10, 0, 14, 13\n30, 41, 197, 216, 0, 718, 0]"] ;
28 -> 29 ;
30 [label="X[6] <= 8.5\ngini = 0.765\nsamples = 152\nvalue = [0, 0, 10, 0, 0, 0, 0, 0, 25, 0, 0, 14, 12, 0\n0, 56, 35, 0, 0, 0]"] ;
29 -> 30 ;
31 [label="gini = 0.0\nsamples = 56\nvalue = [0, 0, 0, 0, 0, 0, 0, 0, 0, 0, 0, 0, 0, 0\n0, 56, 0, 0, 0, 0]"] ;
30 -> 31 ;
32 [label="X[6] <= 9.5\ngini = 0.752\nsamples = 96\nvalue = [0, 0, 10, 0, 0, 0, 0, 0, 25, 0, 0, 14, 12, 0\n0, 0, 35, 0, 0, 0]"] ;
30 -> 32 ;
33 [label="X[5] <= 1.5\ngini = 0.707\nsamples = 59\nvalue = [0, 0, 10, 0, 0, 0, 0, 0, 25, 0, 0, 14, 10, 0\n0, 0, 0, 0, 0, 0]"] ;
32 -> 33 ;
34 [label="gini = 0.0\nsamples = 10\nvalue = [0, 0, 0, 0, 0, 0, 0, 0, 0, 0, 0, 0, 10, 0\n0, 0, 0, 0, 0, 0]"] ;
33 -> 34 ;
35 [label="X[10] <= 0.5\ngini = 0.616\nsamples = 49\nvalue = [0, 0, 10, 0, 0, 0, 0, 0, 25, 0, 0, 14, 0, 0\n0, 0, 0, 0, 0, 0]"] ;
33 -> 35 ;
36 [label="X[8] <= 6.5\ngini = 0.346\nsamples = 18\nvalue = [0, 0, 0, 0, 0, 0, 0, 0, 4, 0, 0, 14, 0, 0\n0, 0, 0, 0, 0, 0]"] ;
35 -> 36 ;
37 [label="gini = 0.0\nsamples = 14\nvalue = [0, 0, 0, 0, 0, 0, 0, 0, 0, 0, 0, 14, 0, 0\n0, 0, 0, 0, 0, 0]"] ;
36 -> 37 ;
38 [label="gini = 0.0\nsamples = 4\nvalue = [0, 0, 0, 0, 0, 0, 0, 0, 4, 0, 0, 0, 0, 0\n0, 0, 0, 0, 0, 0]"] ;
36 -> 38 ;
39 [label="X[5] <= 2.5\ngini = 0.437\nsamples = 31\nvalue = [0, 0, 10, 0, 0, 0, 0, 0, 21, 0, 0, 0, 0, 0\n0, 0, 0, 0, 0, 0]"] ;
35 -> 39 ;
40 [label="gini = 0.0\nsamples = 10\nvalue = [0, 0, 10, 0, 0, 0, 0, 0, 0, 0, 0, 0, 0, 0\n0, 0, 0, 0, 0, 0]"] ;
39 -> 40 ;
41 [label="gini = 0.0\nsamples = 21\nvalue = [0, 0, 0, 0, 0, 0, 0, 0, 21, 0, 0, 0, 0, 0\n0, 0, 0, 0, 0, 0]"] ;
39 -> 41 ;
42 [label="X[2] <= 0.5\ngini = 0.102\nsamples = 37\nvalue = [0, 0, 0, 0, 0, 0, 0, 0, 0, 0, 0, 0, 2, 0\n0, 0, 35, 0, 0, 0]"] ;
32 -> 42 ;
43 [label="gini = 0.0\nsamples = 35\nvalue = [0, 0, 0, 0, 0, 0, 0, 0, 0, 0, 0, 0, 0, 0\n0, 0, 35, 0, 0, 0]"] ;
42 -> 43 ;
44 [label="gini = 0.0\nsamples = 2\nvalue = [0, 0, 0, 0, 0, 0, 0, 0, 0, 0, 0, 0, 2, 0\n0, 0, 0, 0, 0, 0]"] ;
42 -> 44 ;
45 [label="X[6] <= 12.5\ngini = 0.561\nsamples = 1140\nvalue = [0, 0, 1, 0, 0, 0, 0, 17, 0, 10, 0, 0, 1, 30\n41, 141, 181, 0, 718, 0]"] ;
29 -> 45 ;
46 [label="X[6] <= 11.5\ngini = 0.38\nsamples = 772\nvalue = [0, 0, 0, 0, 0, 0, 0, 0, 0, 0, 0, 0, 0, 0\n26, 0, 160, 0, 586, 0]"] ;
45 -> 46 ;
47 [label="X[6] <= 10.5\ngini = 0.477\nsamples = 546\nvalue = [0, 0, 0, 0, 0, 0, 0, 0, 0, 0, 0, 0, 0, 0\n26, 0, 160, 0, 360, 0]"] ;
46 -> 47 ;
48 [label="X[5] <= 7.5\ngini = 0.141\nsamples = 355\nvalue = [0, 0, 0, 0, 0, 0, 0, 0, 0, 0, 0, 0, 0, 0\n0, 0, 27, 0, 328, 0]"] ;
47 -> 48 ;
49 [label="X[6] <= 9.5\ngini = 0.071\nsamples = 299\nvalue = [0, 0, 0, 0, 0, 0, 0, 0, 0, 0, 0, 0, 0, 0\n0, 0, 11, 0, 288, 0]"] ;
48 -> 49 ;
50 [label="gini = 0.0\nsamples = 184\nvalue = [0, 0, 0, 0, 0, 0, 0, 0, 0, 0, 0, 0, 0, 0\n0, 0, 0, 0, 184, 0]"] ;
49 -> 50 ;
51 [label="X[10] <= 3.5\ngini = 0.173\nsamples = 115\nvalue = [0, 0, 0, 0, 0, 0, 0, 0, 0, 0, 0, 0, 0, 0\n0, 0, 11, 0, 104, 0]"] ;
49 -> 51 ;
52 [label="gini = 0.0\nsamples = 72\nvalue = [0, 0, 0, 0, 0, 0, 0, 0, 0, 0, 0, 0, 0, 0\n0, 0, 0, 0, 72, 0]"] ;
51 -> 52 ;
53 [label="X[5] <= 5.5\ngini = 0.381\nsamples = 43\nvalue = [0, 0, 0, 0, 0, 0, 0, 0, 0, 0, 0, 0, 0, 0\n0, 0, 11, 0, 32, 0]"] ;
51 -> 53 ;
54 [label="gini = 0.0\nsamples = 14\nvalue = [0, 0, 0, 0, 0, 0, 0, 0, 0, 0, 0, 0, 0, 0\n0, 0, 0, 0, 14, 0]"] ;
53 -> 54 ;
55 [label="X[2] <= 0.5\ngini = 0.471\nsamples = 29\nvalue = [0, 0, 0, 0, 0, 0, 0, 0, 0, 0, 0, 0, 0, 0\n0, 0, 11, 0, 18, 0]"] ;
53 -> 55 ;
56 [label="X[9] <= 2.5\ngini = 0.499\nsamples = 23\nvalue = [0, 0, 0, 0, 0, 0, 0, 0, 0, 0, 0, 0, 0, 0\n0, 0, 11, 0, 12, 0]"] ;
55 -> 56 ;
57 [label="X[7] <= 4.5\ngini = 0.498\nsamples = 17\nvalue = [0, 0, 0, 0, 0, 0, 0, 0, 0, 0, 0, 0, 0, 0\n0, 0, 9, 0, 8, 0]"] ;
56 -> 57 ;
58 [label="gini = 0.444\nsamples = 3\nvalue = [0, 0, 0, 0, 0, 0, 0, 0, 0, 0, 0, 0, 0, 0\n0, 0, 1, 0, 2, 0]"] ;
57 -> 58 ;
59 [label="X[5] <= 6.5\ngini = 0.49\nsamples = 14\nvalue = [0, 0, 0, 0, 0, 0, 0, 0, 0, 0, 0, 0, 0, 0\n0, 0, 8, 0, 6, 0]"] ;
57 -> 59 ;
60 [label="X[7] <= 5.5\ngini = 0.5\nsamples = 6\nvalue = [0, 0, 0, 0, 0, 0, 0, 0, 0, 0, 0, 0, 0, 0\n0, 0, 3, 0, 3, 0]"] ;
59 -> 60 ;
61 [label="gini = 0.5\nsamples = 2\nvalue = [0, 0, 0, 0, 0, 0, 0, 0, 0, 0, 0, 0, 0, 0\n0, 0, 1, 0, 1, 0]"] ;
60 -> 61 ;
62 [label="gini = 0.5\nsamples = 4\nvalue = [0, 0, 0, 0, 0, 0, 0, 0, 0, 0, 0, 0, 0, 0\n0, 0, 2, 0, 2, 0]"] ;
60 -> 62 ;
63 [label="gini = 0.469\nsamples = 8\nvalue = [0, 0, 0, 0, 0, 0, 0, 0, 0, 0, 0, 0, 0, 0\n0, 0, 5, 0, 3, 0]"] ;
59 -> 63 ;
64 [label="X[10] <= 4.5\ngini = 0.444\nsamples = 6\nvalue = [0, 0, 0, 0, 0, 0, 0, 0, 0, 0, 0, 0, 0, 0\n0, 0, 2, 0, 4, 0]"] ;
56 -> 64 ;
65 [label="gini = 0.0\nsamples = 1\nvalue = [0, 0, 0, 0, 0, 0, 0, 0, 0, 0, 0, 0, 0, 0\n0, 0, 0, 0, 1, 0]"] ;
64 -> 65 ;
66 [label="X[10] <= 5.5\ngini = 0.48\nsamples = 5\nvalue = [0, 0, 0, 0, 0, 0, 0, 0, 0, 0, 0, 0, 0, 0\n0, 0, 2, 0, 3, 0]"] ;
64 -> 66 ;
67 [label="gini = 0.444\nsamples = 3\nvalue = [0, 0, 0, 0, 0, 0, 0, 0, 0, 0, 0, 0, 0, 0\n0, 0, 1, 0, 2, 0]"] ;
66 -> 67 ;
68 [label="gini = 0.5\nsamples = 2\nvalue = [0, 0, 0, 0, 0, 0, 0, 0, 0, 0, 0, 0, 0, 0\n0, 0, 1, 0, 1, 0]"] ;
66 -> 68 ;
69 [label="gini = 0.0\nsamples = 6\nvalue = [0, 0, 0, 0, 0, 0, 0, 0, 0, 0, 0, 0, 0, 0\n0, 0, 0, 0, 6, 0]"] ;
55 -> 69 ;
70 [label="X[10] <= 3.5\ngini = 0.408\nsamples = 56\nvalue = [0, 0, 0, 0, 0, 0, 0, 0, 0, 0, 0, 0, 0, 0\n0, 0, 16, 0, 40, 0]"] ;
48 -> 70 ;
71 [label="gini = 0.0\nsamples = 15\nvalue = [0, 0, 0, 0, 0, 0, 0, 0, 0, 0, 0, 0, 0, 0\n0, 0, 0, 0, 15, 0]"] ;
70 -> 71 ;
72 [label="X[9] <= 2.5\ngini = 0.476\nsamples = 41\nvalue = [0, 0, 0, 0, 0, 0, 0, 0, 0, 0, 0, 0, 0, 0\n0, 0, 16, 0, 25, 0]"] ;
70 -> 72 ;
73 [label="X[7] <= 2.5\ngini = 0.499\nsamples = 27\nvalue = [0, 0, 0, 0, 0, 0, 0, 0, 0, 0, 0, 0, 0, 0\n0, 0, 14, 0, 13, 0]"] ;
72 -> 73 ;
74 [label="gini = 0.0\nsamples = 3\nvalue = [0, 0, 0, 0, 0, 0, 0, 0, 0, 0, 0, 0, 0, 0\n0, 0, 0, 0, 3, 0]"] ;
73 -> 74 ;
75 [label="X[10] <= 6.5\ngini = 0.486\nsamples = 24\nvalue = [0, 0, 0, 0, 0, 0, 0, 0, 0, 0, 0, 0, 0, 0\n0, 0, 14, 0, 10, 0]"] ;
73 -> 75 ;
76 [label="X[7] <= 4.5\ngini = 0.499\nsamples = 19\nvalue = [0, 0, 0, 0, 0, 0, 0, 0, 0, 0, 0, 0, 0, 0\n0, 0, 10, 0, 9, 0]"] ;
75 -> 76 ;
77 [label="gini = 0.0\nsamples = 2\nvalue = [0, 0, 0, 0, 0, 0, 0, 0, 0, 0, 0, 0, 0, 0\n0, 0, 0, 0, 2, 0]"] ;
76 -> 77 ;
78 [label="X[10] <= 4.5\ngini = 0.484\nsamples = 17\nvalue = [0, 0, 0, 0, 0, 0, 0, 0, 0, 0, 0, 0, 0, 0\n0, 0, 10, 0, 7, 0]"] ;
76 -> 78 ;
79 [label="gini = 0.444\nsamples = 6\nvalue = [0, 0, 0, 0, 0, 0, 0, 0, 0, 0, 0, 0, 0, 0\n0, 0, 4, 0, 2, 0]"] ;
78 -> 79 ;
80 [label="gini = 0.496\nsamples = 11\nvalue = [0, 0, 0, 0, 0, 0, 0, 0, 0, 0, 0, 0, 0, 0\n0, 0, 6, 0, 5, 0]"] ;
78 -> 80 ;
81 [label="gini = 0.32\nsamples = 5\nvalue = [0, 0, 0, 0, 0, 0, 0, 0, 0, 0, 0, 0, 0, 0\n0, 0, 4, 0, 1, 0]"] ;
75 -> 81 ;
82 [label="X[10] <= 4.5\ngini = 0.245\nsamples = 14\nvalue = [0, 0, 0, 0, 0, 0, 0, 0, 0, 0, 0, 0, 0, 0\n0, 0, 2, 0, 12, 0]"] ;
72 -> 82 ;
83 [label="gini = 0.375\nsamples = 8\nvalue = [0, 0, 0, 0, 0, 0, 0, 0, 0, 0, 0, 0, 0, 0\n0, 0, 2, 0, 6, 0]"] ;
82 -> 83 ;
84 [label="gini = 0.0\nsamples = 6\nvalue = [0, 0, 0, 0, 0, 0, 0, 0, 0, 0, 0, 0, 0, 0\n0, 0, 0, 0, 6, 0]"] ;
82 -> 84 ;
85 [label="X[10] <= 2.5\ngini = 0.469\nsamples = 191\nvalue = [0, 0, 0, 0, 0, 0, 0, 0, 0, 0, 0, 0, 0, 0\n26, 0, 133, 0, 32, 0]"] ;
47 -> 85 ;
86 [label="X[5] <= 4.5\ngini = 0.511\nsamples = 43\nvalue = [0, 0, 0, 0, 0, 0, 0, 0, 0, 0, 0, 0, 0, 0\n26, 0, 2, 0, 15, 0]"] ;
85 -> 86 ;
87 [label="X[8] <= 7.5\ngini = 0.208\nsamples = 17\nvalue = [0, 0, 0, 0, 0, 0, 0, 0, 0, 0, 0, 0, 0, 0\n0, 0, 2, 0, 15, 0]"] ;
86 -> 87 ;
88 [label="gini = 0.0\nsamples = 2\nvalue = [0, 0, 0, 0, 0, 0, 0, 0, 0, 0, 0, 0, 0, 0\n0, 0, 2, 0, 0, 0]"] ;
87 -> 88 ;
89 [label="gini = 0.0\nsamples = 15\nvalue = [0, 0, 0, 0, 0, 0, 0, 0, 0, 0, 0, 0, 0, 0\n0, 0, 0, 0, 15, 0]"] ;
87 -> 89 ;
90 [label="gini = 0.0\nsamples = 26\nvalue = [0, 0, 0, 0, 0, 0, 0, 0, 0, 0, 0, 0, 0, 0\n26, 0, 0, 0, 0, 0]"] ;
86 -> 90 ;
91 [label="X[2] <= 0.5\ngini = 0.203\nsamples = 148\nvalue = [0, 0, 0, 0, 0, 0, 0, 0, 0, 0, 0, 0, 0, 0\n0, 0, 131, 0, 17, 0]"] ;
85 -> 91 ;
92 [label="gini = 0.0\nsamples = 131\nvalue = [0, 0, 0, 0, 0, 0, 0, 0, 0, 0, 0, 0, 0, 0\n0, 0, 131, 0, 0, 0]"] ;
91 -> 92 ;
93 [label="gini = 0.0\nsamples = 17\nvalue = [0, 0, 0, 0, 0, 0, 0, 0, 0, 0, 0, 0, 0, 0\n0, 0, 0, 0, 17, 0]"] ;
91 -> 93 ;
94 [label="gini = 0.0\nsamples = 226\nvalue = [0, 0, 0, 0, 0, 0, 0, 0, 0, 0, 0, 0, 0, 0\n0, 0, 0, 0, 226, 0]"] ;
46 -> 94 ;
95 [label="X[6] <= 13.5\ngini = 0.71\nsamples = 368\nvalue = [0, 0, 1, 0, 0, 0, 0, 17, 0, 10, 0, 0, 1, 30\n15, 141, 21, 0, 132, 0]"] ;
45 -> 95 ;
96 [label="X[7] <= 8.5\ngini = 0.755\nsamples = 164\nvalue = [0, 0, 1, 0, 0, 0, 0, 17, 0, 10, 0, 0, 1, 30\n15, 68, 21, 0, 1, 0]"] ;
95 -> 96 ;
97 [label="X[10] <= 6.5\ngini = 0.609\nsamples = 115\nvalue = [0, 0, 0, 0, 0, 0, 0, 0, 0, 10, 0, 0, 0, 10\n12, 68, 14, 0, 1, 0]"] ;
96 -> 97 ;
98 [label="X[5] <= 10.5\ngini = 0.618\nsamples = 57\nvalue = [0, 0, 0, 0, 0, 0, 0, 0, 0, 0, 0, 0, 0, 0\n12, 30, 14, 0, 1, 0]"] ;
97 -> 98 ;
99 [label="X[10] <= 5.5\ngini = 0.667\nsamples = 43\nvalue = [0, 0, 0, 0, 0, 0, 0, 0, 0, 0, 0, 0, 0, 0\n11, 18, 13, 0, 1, 0]"] ;
98 -> 99 ;
100 [label="X[5] <= 6.5\ngini = 0.636\nsamples = 26\nvalue = [0, 0, 0, 0, 0, 0, 0, 0, 0, 0, 0, 0, 0, 0\n11, 10, 5, 0, 0, 0]"] ;
99 -> 100 ;
101 [label="X[5] <= 5.5\ngini = 0.408\nsamples = 7\nvalue = [0, 0, 0, 0, 0, 0, 0, 0, 0, 0, 0, 0, 0, 0\n0, 2, 5, 0, 0, 0]"] ;
100 -> 101 ;
102 [label="gini = 0.0\nsamples = 2\nvalue = [0, 0, 0, 0, 0, 0, 0, 0, 0, 0, 0, 0, 0, 0\n0, 2, 0, 0, 0, 0]"] ;
101 -> 102 ;
103 [label="gini = 0.0\nsamples = 5\nvalue = [0, 0, 0, 0, 0, 0, 0, 0, 0, 0, 0, 0, 0, 0\n0, 0, 5, 0, 0, 0]"] ;
101 -> 103 ;
104 [label="X[9] <= 1.5\ngini = 0.488\nsamples = 19\nvalue = [0, 0, 0, 0, 0, 0, 0, 0, 0, 0, 0, 0, 0, 0\n11, 8, 0, 0, 0, 0]"] ;
100 -> 104 ;
105 [label="gini = 0.0\nsamples = 1\nvalue = [0, 0, 0, 0, 0, 0, 0, 0, 0, 0, 0, 0, 0, 0\n0, 1, 0, 0, 0, 0]"] ;
104 -> 105 ;
106 [label="X[8] <= 3.5\ngini = 0.475\nsamples = 18\nvalue = [0, 0, 0, 0, 0, 0, 0, 0, 0, 0, 0, 0, 0, 0\n11, 7, 0, 0, 0, 0]"] ;
104 -> 106 ;
107 [label="X[9] <= 2.5\ngini = 0.48\nsamples = 5\nvalue = [0, 0, 0, 0, 0, 0, 0, 0, 0, 0, 0, 0, 0, 0\n2, 3, 0, 0, 0, 0]"] ;
106 -> 107 ;
108 [label="gini = 0.5\nsamples = 4\nvalue = [0, 0, 0, 0, 0, 0, 0, 0, 0, 0, 0, 0, 0, 0\n2, 2, 0, 0, 0, 0]"] ;
107 -> 108 ;
109 [label="gini = 0.0\nsamples = 1\nvalue = [0, 0, 0, 0, 0, 0, 0, 0, 0, 0, 0, 0, 0, 0\n0, 1, 0, 0, 0, 0]"] ;
107 -> 109 ;
110 [label="X[8] <= 4.5\ngini = 0.426\nsamples = 13\nvalue = [0, 0, 0, 0, 0, 0, 0, 0, 0, 0, 0, 0, 0, 0\n9, 4, 0, 0, 0, 0]"] ;
106 -> 110 ;
111 [label="X[9] <= 2.5\ngini = 0.278\nsamples = 6\nvalue = [0, 0, 0, 0, 0, 0, 0, 0, 0, 0, 0, 0, 0, 0\n5, 1, 0, 0, 0, 0]"] ;
110 -> 111 ;
112 [label="gini = 0.32\nsamples = 5\nvalue = [0, 0, 0, 0, 0, 0, 0, 0, 0, 0, 0, 0, 0, 0\n4, 1, 0, 0, 0, 0]"] ;
111 -> 112 ;
113 [label="gini = 0.0\nsamples = 1\nvalue = [0, 0, 0, 0, 0, 0, 0, 0, 0, 0, 0, 0, 0, 0\n1, 0, 0, 0, 0, 0]"] ;
111 -> 113 ;
114 [label="X[5] <= 7.5\ngini = 0.49\nsamples = 7\nvalue = [0, 0, 0, 0, 0, 0, 0, 0, 0, 0, 0, 0, 0, 0\n4, 3, 0, 0, 0, 0]"] ;
110 -> 114 ;
115 [label="X[9] <= 2.5\ngini = 0.5\nsamples = 2\nvalue = [0, 0, 0, 0, 0, 0, 0, 0, 0, 0, 0, 0, 0, 0\n1, 1, 0, 0, 0, 0]"] ;
114 -> 115 ;
116 [label="gini = 0.0\nsamples = 1\nvalue = [0, 0, 0, 0, 0, 0, 0, 0, 0, 0, 0, 0, 0, 0\n1, 0, 0, 0, 0, 0]"] ;
115 -> 116 ;
117 [label="gini = 0.0\nsamples = 1\nvalue = [0, 0, 0, 0, 0, 0, 0, 0, 0, 0, 0, 0, 0, 0\n0, 1, 0, 0, 0, 0]"] ;
115 -> 117 ;
118 [label="X[9] <= 2.5\ngini = 0.48\nsamples = 5\nvalue = [0, 0, 0, 0, 0, 0, 0, 0, 0, 0, 0, 0, 0, 0\n3, 2, 0, 0, 0, 0]"] ;
114 -> 118 ;
119 [label="gini = 0.5\nsamples = 4\nvalue = [0, 0, 0, 0, 0, 0, 0, 0, 0, 0, 0, 0, 0, 0\n2, 2, 0, 0, 0, 0]"] ;
118 -> 119 ;
120 [label="gini = 0.0\nsamples = 1\nvalue = [0, 0, 0, 0, 0, 0, 0, 0, 0, 0, 0, 0, 0, 0\n1, 0, 0, 0, 0, 0]"] ;
118 -> 120 ;
121 [label="X[8] <= 5.5\ngini = 0.554\nsamples = 17\nvalue = [0, 0, 0, 0, 0, 0, 0, 0, 0, 0, 0, 0, 0, 0\n0, 8, 8, 0, 1, 0]"] ;
99 -> 121 ;
122 [label="X[9] <= 2.5\ngini = 0.473\nsamples = 13\nvalue = [0, 0, 0, 0, 0, 0, 0, 0, 0, 0, 0, 0, 0, 0\n0, 5, 8, 0, 0, 0]"] ;
121 -> 122 ;
123 [label="X[8] <= 3.5\ngini = 0.5\nsamples = 8\nvalue = [0, 0, 0, 0, 0, 0, 0, 0, 0, 0, 0, 0, 0, 0\n0, 4, 4, 0, 0, 0]"] ;
122 -> 123 ;
124 [label="gini = 0.444\nsamples = 3\nvalue = [0, 0, 0, 0, 0, 0, 0, 0, 0, 0, 0, 0, 0, 0\n0, 1, 2, 0, 0, 0]"] ;
123 -> 124 ;
125 [label="X[5] <= 8.5\ngini = 0.48\nsamples = 5\nvalue = [0, 0, 0, 0, 0, 0, 0, 0, 0, 0, 0, 0, 0, 0\n0, 3, 2, 0, 0, 0]"] ;
123 -> 125 ;
126 [label="X[9] <= 1.5\ngini = 0.5\nsamples = 2\nvalue = [0, 0, 0, 0, 0, 0, 0, 0, 0, 0, 0, 0, 0, 0\n0, 1, 1, 0, 0, 0]"] ;
125 -> 126 ;
127 [label="gini = 0.0\nsamples = 1\nvalue = [0, 0, 0, 0, 0, 0, 0, 0, 0, 0, 0, 0, 0, 0\n0, 0, 1, 0, 0, 0]"] ;
126 -> 127 ;
128 [label="gini = 0.0\nsamples = 1\nvalue = [0, 0, 0, 0, 0, 0, 0, 0, 0, 0, 0, 0, 0, 0\n0, 1, 0, 0, 0, 0]"] ;
126 -> 128 ;
129 [label="X[9] <= 1.5\ngini = 0.444\nsamples = 3\nvalue = [0, 0, 0, 0, 0, 0, 0, 0, 0, 0, 0, 0, 0, 0\n0, 2, 1, 0, 0, 0]"] ;
125 -> 129 ;
130 [label="gini = 0.0\nsamples = 1\nvalue = [0, 0, 0, 0, 0, 0, 0, 0, 0, 0, 0, 0, 0, 0\n0, 1, 0, 0, 0, 0]"] ;
129 -> 130 ;
131 [label="gini = 0.5\nsamples = 2\nvalue = [0, 0, 0, 0, 0, 0, 0, 0, 0, 0, 0, 0, 0, 0\n0, 1, 1, 0, 0, 0]"] ;
129 -> 131 ;
132 [label="X[8] <= 3.5\ngini = 0.32\nsamples = 5\nvalue = [0, 0, 0, 0, 0, 0, 0, 0, 0, 0, 0, 0, 0, 0\n0, 1, 4, 0, 0, 0]"] ;
122 -> 132 ;
133 [label="gini = 0.0\nsamples = 1\nvalue = [0, 0, 0, 0, 0, 0, 0, 0, 0, 0, 0, 0, 0, 0\n0, 0, 1, 0, 0, 0]"] ;
132 -> 133 ;
134 [label="X[5] <= 8.5\ngini = 0.375\nsamples = 4\nvalue = [0, 0, 0, 0, 0, 0, 0, 0, 0, 0, 0, 0, 0, 0\n0, 1, 3, 0, 0, 0]"] ;
132 -> 134 ;
135 [label="gini = 0.0\nsamples = 1\nvalue = [0, 0, 0, 0, 0, 0, 0, 0, 0, 0, 0, 0, 0, 0\n0, 0, 1, 0, 0, 0]"] ;
134 -> 135 ;
136 [label="gini = 0.444\nsamples = 3\nvalue = [0, 0, 0, 0, 0, 0, 0, 0, 0, 0, 0, 0, 0, 0\n0, 1, 2, 0, 0, 0]"] ;
134 -> 136 ;
137 [label="X[8] <= 6.5\ngini = 0.375\nsamples = 4\nvalue = [0, 0, 0, 0, 0, 0, 0, 0, 0, 0, 0, 0, 0, 0\n0, 3, 0, 0, 1, 0]"] ;
121 -> 137 ;
138 [label="gini = 0.0\nsamples = 2\nvalue = [0, 0, 0, 0, 0, 0, 0, 0, 0, 0, 0, 0, 0, 0\n0, 2, 0, 0, 0, 0]"] ;
137 -> 138 ;
139 [label="gini = 0.5\nsamples = 2\nvalue = [0, 0, 0, 0, 0, 0, 0, 0, 0, 0, 0, 0, 0, 0\n0, 1, 0, 0, 1, 0]"] ;
137 -> 139 ;
140 [label="X[9] <= 2.5\ngini = 0.255\nsamples = 14\nvalue = [0, 0, 0, 0, 0, 0, 0, 0, 0, 0, 0, 0, 0, 0\n1, 12, 1, 0, 0, 0]"] ;
98 -> 140 ;
141 [label="gini = 0.0\nsamples = 9\nvalue = [0, 0, 0, 0, 0, 0, 0, 0, 0, 0, 0, 0, 0, 0\n0, 9, 0, 0, 0, 0]"] ;
140 -> 141 ;
142 [label="X[7] <= 7.5\ngini = 0.56\nsamples = 5\nvalue = [0, 0, 0, 0, 0, 0, 0, 0, 0, 0, 0, 0, 0, 0\n1, 3, 1, 0, 0, 0]"] ;
140 -> 142 ;
143 [label="gini = 0.5\nsamples = 2\nvalue = [0, 0, 0, 0, 0, 0, 0, 0, 0, 0, 0, 0, 0, 0\n0, 1, 1, 0, 0, 0]"] ;
142 -> 143 ;
144 [label="gini = 0.444\nsamples = 3\nvalue = [0, 0, 0, 0, 0, 0, 0, 0, 0, 0, 0, 0, 0, 0\n1, 2, 0, 0, 0, 0]"] ;
142 -> 144 ;
145 [label="X[9] <= 2.5\ngini = 0.511\nsamples = 58\nvalue = [0, 0, 0, 0, 0, 0, 0, 0, 0, 10, 0, 0, 0, 10\n0, 38, 0, 0, 0, 0]"] ;
97 -> 145 ;
146 [label="X[2] <= 0.5\ngini = 0.388\nsamples = 38\nvalue = [0, 0, 0, 0, 0, 0, 0, 0, 0, 0, 0, 0, 0, 10\n0, 28, 0, 0, 0, 0]"] ;
145 -> 146 ;
147 [label="X[10] <= 9.5\ngini = 0.452\nsamples = 29\nvalue = [0, 0, 0, 0, 0, 0, 0, 0, 0, 0, 0, 0, 0, 10\n0, 19, 0, 0, 0, 0]"] ;
146 -> 147 ;
148 [label="X[9] <= 1.5\ngini = 0.466\nsamples = 27\nvalue = [0, 0, 0, 0, 0, 0, 0, 0, 0, 0, 0, 0, 0, 10\n0, 17, 0, 0, 0, 0]"] ;
147 -> 148 ;
149 [label="gini = 0.0\nsamples = 1\nvalue = [0, 0, 0, 0, 0, 0, 0, 0, 0, 0, 0, 0, 0, 0\n0, 1, 0, 0, 0, 0]"] ;
148 -> 149 ;
150 [label="X[7] <= 4.5\ngini = 0.473\nsamples = 26\nvalue = [0, 0, 0, 0, 0, 0, 0, 0, 0, 0, 0, 0, 0, 10\n0, 16, 0, 0, 0, 0]"] ;
148 -> 150 ;
151 [label="X[8] <= 2.5\ngini = 0.5\nsamples = 4\nvalue = [0, 0, 0, 0, 0, 0, 0, 0, 0, 0, 0, 0, 0, 2\n0, 2, 0, 0, 0, 0]"] ;
150 -> 151 ;
152 [label="gini = 0.0\nsamples = 2\nvalue = [0, 0, 0, 0, 0, 0, 0, 0, 0, 0, 0, 0, 0, 2\n0, 0, 0, 0, 0, 0]"] ;
151 -> 152 ;
153 [label="gini = 0.0\nsamples = 2\nvalue = [0, 0, 0, 0, 0, 0, 0, 0, 0, 0, 0, 0, 0, 0\n0, 2, 0, 0, 0, 0]"] ;
151 -> 153 ;
154 [label="X[8] <= 4.5\ngini = 0.463\nsamples = 22\nvalue = [0, 0, 0, 0, 0, 0, 0, 0, 0, 0, 0, 0, 0, 8\n0, 14, 0, 0, 0, 0]"] ;
150 -> 154 ;
155 [label="X[5] <= 10.5\ngini = 0.444\nsamples = 18\nvalue = [0, 0, 0, 0, 0, 0, 0, 0, 0, 0, 0, 0, 0, 6\n0, 12, 0, 0, 0, 0]"] ;
154 -> 155 ;
156 [label="X[8] <= 3.5\ngini = 0.463\nsamples = 11\nvalue = [0, 0, 0, 0, 0, 0, 0, 0, 0, 0, 0, 0, 0, 4\n0, 7, 0, 0, 0, 0]"] ;
155 -> 156 ;
157 [label="X[7] <= 5.5\ngini = 0.48\nsamples = 5\nvalue = [0, 0, 0, 0, 0, 0, 0, 0, 0, 0, 0, 0, 0, 2\n0, 3, 0, 0, 0, 0]"] ;
156 -> 157 ;
158 [label="gini = 0.0\nsamples = 2\nvalue = [0, 0, 0, 0, 0, 0, 0, 0, 0, 0, 0, 0, 0, 2\n0, 0, 0, 0, 0, 0]"] ;
157 -> 158 ;
159 [label="gini = 0.0\nsamples = 3\nvalue = [0, 0, 0, 0, 0, 0, 0, 0, 0, 0, 0, 0, 0, 0\n0, 3, 0, 0, 0, 0]"] ;
157 -> 159 ;
160 [label="X[7] <= 5.5\ngini = 0.444\nsamples = 6\nvalue = [0, 0, 0, 0, 0, 0, 0, 0, 0, 0, 0, 0, 0, 2\n0, 4, 0, 0, 0, 0]"] ;
156 -> 160 ;
161 [label="gini = 0.0\nsamples = 3\nvalue = [0, 0, 0, 0, 0, 0, 0, 0, 0, 0, 0, 0, 0, 0\n0, 3, 0, 0, 0, 0]"] ;
160 -> 161 ;
162 [label="gini = 0.444\nsamples = 3\nvalue = [0, 0, 0, 0, 0, 0, 0, 0, 0, 0, 0, 0, 0, 2\n0, 1, 0, 0, 0, 0]"] ;
160 -> 162 ;
163 [label="X[10] <= 7.5\ngini = 0.408\nsamples = 7\nvalue = [0, 0, 0, 0, 0, 0, 0, 0, 0, 0, 0, 0, 0, 2\n0, 5, 0, 0, 0, 0]"] ;
155 -> 163 ;
164 [label="gini = 0.48\nsamples = 5\nvalue = [0, 0, 0, 0, 0, 0, 0, 0, 0, 0, 0, 0, 0, 2\n0, 3, 0, 0, 0, 0]"] ;
163 -> 164 ;
165 [label="gini = 0.0\nsamples = 2\nvalue = [0, 0, 0, 0, 0, 0, 0, 0, 0, 0, 0, 0, 0, 0\n0, 2, 0, 0, 0, 0]"] ;
163 -> 165 ;
166 [label="gini = 0.5\nsamples = 4\nvalue = [0, 0, 0, 0, 0, 0, 0, 0, 0, 0, 0, 0, 0, 2\n0, 2, 0, 0, 0, 0]"] ;
154 -> 166 ;
167 [label="gini = 0.0\nsamples = 2\nvalue = [0, 0, 0, 0, 0, 0, 0, 0, 0, 0, 0, 0, 0, 0\n0, 2, 0, 0, 0, 0]"] ;
147 -> 167 ;
168 [label="gini = 0.0\nsamples = 9\nvalue = [0, 0, 0, 0, 0, 0, 0, 0, 0, 0, 0, 0, 0, 0\n0, 9, 0, 0, 0, 0]"] ;
146 -> 168 ;
169 [label="X[8] <= 3.5\ngini = 0.5\nsamples = 20\nvalue = [0, 0, 0, 0, 0, 0, 0, 0, 0, 10, 0, 0, 0, 0\n0, 10, 0, 0, 0, 0]"] ;
145 -> 169 ;
170 [label="X[5] <= 10.5\ngini = 0.426\nsamples = 13\nvalue = [0, 0, 0, 0, 0, 0, 0, 0, 0, 4, 0, 0, 0, 0\n0, 9, 0, 0, 0, 0]"] ;
169 -> 170 ;
171 [label="X[10] <= 7.5\ngini = 0.245\nsamples = 7\nvalue = [0, 0, 0, 0, 0, 0, 0, 0, 0, 1, 0, 0, 0, 0\n0, 6, 0, 0, 0, 0]"] ;
170 -> 171 ;
172 [label="gini = 0.444\nsamples = 3\nvalue = [0, 0, 0, 0, 0, 0, 0, 0, 0, 1, 0, 0, 0, 0\n0, 2, 0, 0, 0, 0]"] ;
171 -> 172 ;
173 [label="gini = 0.0\nsamples = 4\nvalue = [0, 0, 0, 0, 0, 0, 0, 0, 0, 0, 0, 0, 0, 0\n0, 4, 0, 0, 0, 0]"] ;
171 -> 173 ;
174 [label="X[10] <= 8.5\ngini = 0.5\nsamples = 6\nvalue = [0, 0, 0, 0, 0, 0, 0, 0, 0, 3, 0, 0, 0, 0\n0, 3, 0, 0, 0, 0]"] ;
170 -> 174 ;
175 [label="X[7] <= 5.5\ngini = 0.48\nsamples = 5\nvalue = [0, 0, 0, 0, 0, 0, 0, 0, 0, 3, 0, 0, 0, 0\n0, 2, 0, 0, 0, 0]"] ;
174 -> 175 ;
176 [label="gini = 0.0\nsamples = 1\nvalue = [0, 0, 0, 0, 0, 0, 0, 0, 0, 1, 0, 0, 0, 0\n0, 0, 0, 0, 0, 0]"] ;
175 -> 176 ;
177 [label="gini = 0.5\nsamples = 4\nvalue = [0, 0, 0, 0, 0, 0, 0, 0, 0, 2, 0, 0, 0, 0\n0, 2, 0, 0, 0, 0]"] ;
175 -> 177 ;
178 [label="gini = 0.0\nsamples = 1\nvalue = [0, 0, 0, 0, 0, 0, 0, 0, 0, 0, 0, 0, 0, 0\n0, 1, 0, 0, 0, 0]"] ;
174 -> 178 ;
179 [label="X[7] <= 5.5\ngini = 0.245\nsamples = 7\nvalue = [0, 0, 0, 0, 0, 0, 0, 0, 0, 6, 0, 0, 0, 0\n0, 1, 0, 0, 0, 0]"] ;
169 -> 179 ;
180 [label="gini = 0.444\nsamples = 3\nvalue = [0, 0, 0, 0, 0, 0, 0, 0, 0, 2, 0, 0, 0, 0\n0, 1, 0, 0, 0, 0]"] ;
179 -> 180 ;
181 [label="gini = 0.0\nsamples = 4\nvalue = [0, 0, 0, 0, 0, 0, 0, 0, 0, 4, 0, 0, 0, 0\n0, 0, 0, 0, 0, 0]"] ;
179 -> 181 ;
182 [label="X[5] <= 6.5\ngini = 0.688\nsamples = 49\nvalue = [0, 0, 1, 0, 0, 0, 0, 17, 0, 0, 0, 0, 1, 20\n3, 0, 7, 0, 0, 0]"] ;
96 -> 182 ;
183 [label="X[2] <= 0.5\ngini = 0.611\nsamples = 12\nvalue = [0, 0, 0, 0, 0, 0, 0, 2, 0, 0, 0, 0, 1, 1\n1, 0, 7, 0, 0, 0]"] ;
182 -> 183 ;
184 [label="X[9] <= 1.5\ngini = 0.37\nsamples = 9\nvalue = [0, 0, 0, 0, 0, 0, 0, 0, 0, 0, 0, 0, 0, 1\n1, 0, 7, 0, 0, 0]"] ;
183 -> 184 ;
185 [label="gini = 0.0\nsamples = 1\nvalue = [0, 0, 0, 0, 0, 0, 0, 0, 0, 0, 0, 0, 0, 0\n1, 0, 0, 0, 0, 0]"] ;
184 -> 185 ;
186 [label="X[8] <= 7.5\ngini = 0.219\nsamples = 8\nvalue = [0, 0, 0, 0, 0, 0, 0, 0, 0, 0, 0, 0, 0, 1\n0, 0, 7, 0, 0, 0]"] ;
184 -> 186 ;
187 [label="gini = 0.0\nsamples = 5\nvalue = [0, 0, 0, 0, 0, 0, 0, 0, 0, 0, 0, 0, 0, 0\n0, 0, 5, 0, 0, 0]"] ;
186 -> 187 ;
188 [label="gini = 0.444\nsamples = 3\nvalue = [0, 0, 0, 0, 0, 0, 0, 0, 0, 0, 0, 0, 0, 1\n0, 0, 2, 0, 0, 0]"] ;
186 -> 188 ;
189 [label="X[9] <= 2.5\ngini = 0.444\nsamples = 3\nvalue = [0, 0, 0, 0, 0, 0, 0, 2, 0, 0, 0, 0, 1, 0\n0, 0, 0, 0, 0, 0]"] ;
183 -> 189 ;
190 [label="gini = 0.0\nsamples = 2\nvalue = [0, 0, 0, 0, 0, 0, 0, 2, 0, 0, 0, 0, 0, 0\n0, 0, 0, 0, 0, 0]"] ;
189 -> 190 ;
191 [label="gini = 0.0\nsamples = 1\nvalue = [0, 0, 0, 0, 0, 0, 0, 0, 0, 0, 0, 0, 1, 0\n0, 0, 0, 0, 0, 0]"] ;
189 -> 191 ;
192 [label="X[9] <= 2.5\ngini = 0.568\nsamples = 37\nvalue = [0, 0, 1, 0, 0, 0, 0, 15, 0, 0, 0, 0, 0, 19\n2, 0, 0, 0, 0, 0]"] ;
182 -> 192 ;
193 [label="X[9] <= 1.5\ngini = 0.531\nsamples = 30\nvalue = [0, 0, 1, 0, 0, 0, 0, 15, 0, 0, 0, 0, 0, 14\n0, 0, 0, 0, 0, 0]"] ;
192 -> 193 ;
194 [label="gini = 0.0\nsamples = 1\nvalue = [0, 0, 1, 0, 0, 0, 0, 0, 0, 0, 0, 0, 0, 0\n0, 0, 0, 0, 0, 0]"] ;
193 -> 194 ;
195 [label="X[5] <= 8.5\ngini = 0.499\nsamples = 29\nvalue = [0, 0, 0, 0, 0, 0, 0, 15, 0, 0, 0, 0, 0, 14\n0, 0, 0, 0, 0, 0]"] ;
193 -> 195 ;
196 [label="X[5] <= 7.5\ngini = 0.42\nsamples = 10\nvalue = [0, 0, 0, 0, 0, 0, 0, 7, 0, 0, 0, 0, 0, 3\n0, 0, 0, 0, 0, 0]"] ;
195 -> 196 ;
197 [label="gini = 0.32\nsamples = 5\nvalue = [0, 0, 0, 0, 0, 0, 0, 4, 0, 0, 0, 0, 0, 1\n0, 0, 0, 0, 0, 0]"] ;
196 -> 197 ;
198 [label="gini = 0.48\nsamples = 5\nvalue = [0, 0, 0, 0, 0, 0, 0, 3, 0, 0, 0, 0, 0, 2\n0, 0, 0, 0, 0, 0]"] ;
196 -> 198 ;
199 [label="X[8] <= 3.5\ngini = 0.488\nsamples = 19\nvalue = [0, 0, 0, 0, 0, 0, 0, 8, 0, 0, 0, 0, 0, 11\n0, 0, 0, 0, 0, 0]"] ;
195 -> 199 ;
200 [label="X[8] <= 2.5\ngini = 0.496\nsamples = 11\nvalue = [0, 0, 0, 0, 0, 0, 0, 6, 0, 0, 0, 0, 0, 5\n0, 0, 0, 0, 0, 0]"] ;
199 -> 200 ;
201 [label="gini = 0.49\nsamples = 7\nvalue = [0, 0, 0, 0, 0, 0, 0, 4, 0, 0, 0, 0, 0, 3\n0, 0, 0, 0, 0, 0]"] ;
200 -> 201 ;
202 [label="gini = 0.5\nsamples = 4\nvalue = [0, 0, 0, 0, 0, 0, 0, 2, 0, 0, 0, 0, 0, 2\n0, 0, 0, 0, 0, 0]"] ;
200 -> 202 ;
203 [label="gini = 0.375\nsamples = 8\nvalue = [0, 0, 0, 0, 0, 0, 0, 2, 0, 0, 0, 0, 0, 6\n0, 0, 0, 0, 0, 0]"] ;
199 -> 203 ;
204 [label="X[8] <= 4.5\ngini = 0.408\nsamples = 7\nvalue = [0, 0, 0, 0, 0, 0, 0, 0, 0, 0, 0, 0, 0, 5\n2, 0, 0, 0, 0, 0]"] ;
192 -> 204 ;
205 [label="gini = 0.0\nsamples = 3\nvalue = [0, 0, 0, 0, 0, 0, 0, 0, 0, 0, 0, 0, 0, 3\n0, 0, 0, 0, 0, 0]"] ;
204 -> 205 ;
206 [label="X[8] <= 5.5\ngini = 0.5\nsamples = 4\nvalue = [0, 0, 0, 0, 0, 0, 0, 0, 0, 0, 0, 0, 0, 2\n2, 0, 0, 0, 0, 0]"] ;
204 -> 206 ;
207 [label="gini = 0.444\nsamples = 3\nvalue = [0, 0, 0, 0, 0, 0, 0, 0, 0, 0, 0, 0, 0, 1\n2, 0, 0, 0, 0, 0]"] ;
206 -> 207 ;
208 [label="gini = 0.0\nsamples = 1\nvalue = [0, 0, 0, 0, 0, 0, 0, 0, 0, 0, 0, 0, 0, 1\n0, 0, 0, 0, 0, 0]"] ;
206 -> 208 ;
209 [label="X[8] <= 6.5\ngini = 0.46\nsamples = 204\nvalue = [0, 0, 0, 0, 0, 0, 0, 0, 0, 0, 0, 0, 0, 0\n0, 73, 0, 0, 131, 0]"] ;
95 -> 209 ;
210 [label="X[10] <= 6.5\ngini = 0.482\nsamples = 175\nvalue = [0, 0, 0, 0, 0, 0, 0, 0, 0, 0, 0, 0, 0, 0\n0, 71, 0, 0, 104, 0]"] ;
209 -> 210 ;
211 [label="X[5] <= 8.5\ngini = 0.497\nsamples = 69\nvalue = [0, 0, 0, 0, 0, 0, 0, 0, 0, 0, 0, 0, 0, 0\n0, 37, 0, 0, 32, 0]"] ;
210 -> 211 ;
212 [label="X[9] <= 1.5\ngini = 0.494\nsamples = 18\nvalue = [0, 0, 0, 0, 0, 0, 0, 0, 0, 0, 0, 0, 0, 0\n0, 8, 0, 0, 10, 0]"] ;
211 -> 212 ;
213 [label="gini = 0.0\nsamples = 1\nvalue = [0, 0, 0, 0, 0, 0, 0, 0, 0, 0, 0, 0, 0, 0\n0, 1, 0, 0, 0, 0]"] ;
212 -> 213 ;
214 [label="X[7] <= 8.5\ngini = 0.484\nsamples = 17\nvalue = [0, 0, 0, 0, 0, 0, 0, 0, 0, 0, 0, 0, 0, 0\n0, 7, 0, 0, 10, 0]"] ;
212 -> 214 ;
215 [label="X[9] <= 2.5\ngini = 0.444\nsamples = 6\nvalue = [0, 0, 0, 0, 0, 0, 0, 0, 0, 0, 0, 0, 0, 0\n0, 2, 0, 0, 4, 0]"] ;
214 -> 215 ;
216 [label="gini = 0.48\nsamples = 5\nvalue = [0, 0, 0, 0, 0, 0, 0, 0, 0, 0, 0, 0, 0, 0\n0, 2, 0, 0, 3, 0]"] ;
215 -> 216 ;
217 [label="gini = 0.0\nsamples = 1\nvalue = [0, 0, 0, 0, 0, 0, 0, 0, 0, 0, 0, 0, 0, 0\n0, 0, 0, 0, 1, 0]"] ;
215 -> 217 ;
218 [label="X[9] <= 2.5\ngini = 0.496\nsamples = 11\nvalue = [0, 0, 0, 0, 0, 0, 0, 0, 0, 0, 0, 0, 0, 0\n0, 5, 0, 0, 6, 0]"] ;
214 -> 218 ;
219 [label="gini = 0.469\nsamples = 8\nvalue = [0, 0, 0, 0, 0, 0, 0, 0, 0, 0, 0, 0, 0, 0\n0, 3, 0, 0, 5, 0]"] ;
218 -> 219 ;
220 [label="gini = 0.444\nsamples = 3\nvalue = [0, 0, 0, 0, 0, 0, 0, 0, 0, 0, 0, 0, 0, 0\n0, 2, 0, 0, 1, 0]"] ;
218 -> 220 ;
221 [label="X[8] <= 4.5\ngini = 0.491\nsamples = 51\nvalue = [0, 0, 0, 0, 0, 0, 0, 0, 0, 0, 0, 0, 0, 0\n0, 29, 0, 0, 22, 0]"] ;
211 -> 221 ;
222 [label="X[10] <= 5.5\ngini = 0.5\nsamples = 39\nvalue = [0, 0, 0, 0, 0, 0, 0, 0, 0, 0, 0, 0, 0, 0\n0, 20, 0, 0, 19, 0]"] ;
221 -> 222 ;
223 [label="X[5] <= 10.5\ngini = 0.444\nsamples = 18\nvalue = [0, 0, 0, 0, 0, 0, 0, 0, 0, 0, 0, 0, 0, 0\n0, 12, 0, 0, 6, 0]"] ;
222 -> 223 ;
224 [label="X[9] <= 2.5\ngini = 0.444\nsamples = 6\nvalue = [0, 0, 0, 0, 0, 0, 0, 0, 0, 0, 0, 0, 0, 0\n0, 2, 0, 0, 4, 0]"] ;
223 -> 224 ;
225 [label="gini = 0.5\nsamples = 4\nvalue = [0, 0, 0, 0, 0, 0, 0, 0, 0, 0, 0, 0, 0, 0\n0, 2, 0, 0, 2, 0]"] ;
224 -> 225 ;
226 [label="gini = 0.0\nsamples = 2\nvalue = [0, 0, 0, 0, 0, 0, 0, 0, 0, 0, 0, 0, 0, 0\n0, 0, 0, 0, 2, 0]"] ;
224 -> 226 ;
227 [label="X[9] <= 2.5\ngini = 0.278\nsamples = 12\nvalue = [0, 0, 0, 0, 0, 0, 0, 0, 0, 0, 0, 0, 0, 0\n0, 10, 0, 0, 2, 0]"] ;
223 -> 227 ;
228 [label="X[5] <= 11.5\ngini = 0.346\nsamples = 9\nvalue = [0, 0, 0, 0, 0, 0, 0, 0, 0, 0, 0, 0, 0, 0\n0, 7, 0, 0, 2, 0]"] ;
227 -> 228 ;
229 [label="gini = 0.32\nsamples = 5\nvalue = [0, 0, 0, 0, 0, 0, 0, 0, 0, 0, 0, 0, 0, 0\n0, 4, 0, 0, 1, 0]"] ;
228 -> 229 ;
230 [label="gini = 0.375\nsamples = 4\nvalue = [0, 0, 0, 0, 0, 0, 0, 0, 0, 0, 0, 0, 0, 0\n0, 3, 0, 0, 1, 0]"] ;
228 -> 230 ;
231 [label="gini = 0.0\nsamples = 3\nvalue = [0, 0, 0, 0, 0, 0, 0, 0, 0, 0, 0, 0, 0, 0\n0, 3, 0, 0, 0, 0]"] ;
227 -> 231 ;
232 [label="X[9] <= 1.5\ngini = 0.472\nsamples = 21\nvalue = [0, 0, 0, 0, 0, 0, 0, 0, 0, 0, 0, 0, 0, 0\n0, 8, 0, 0, 13, 0]"] ;
222 -> 232 ;
233 [label="gini = 0.0\nsamples = 1\nvalue = [0, 0, 0, 0, 0, 0, 0, 0, 0, 0, 0, 0, 0, 0\n0, 0, 0, 0, 1, 0]"] ;
232 -> 233 ;
234 [label="X[5] <= 11.5\ngini = 0.48\nsamples = 20\nvalue = [0, 0, 0, 0, 0, 0, 0, 0, 0, 0, 0, 0, 0, 0\n0, 8, 0, 0, 12, 0]"] ;
232 -> 234 ;
235 [label="X[9] <= 2.5\ngini = 0.459\nsamples = 14\nvalue = [0, 0, 0, 0, 0, 0, 0, 0, 0, 0, 0, 0, 0, 0\n0, 5, 0, 0, 9, 0]"] ;
234 -> 235 ;
236 [label="X[5] <= 10.5\ngini = 0.48\nsamples = 10\nvalue = [0, 0, 0, 0, 0, 0, 0, 0, 0, 0, 0, 0, 0, 0\n0, 4, 0, 0, 6, 0]"] ;
235 -> 236 ;
237 [label="gini = 0.48\nsamples = 5\nvalue = [0, 0, 0, 0, 0, 0, 0, 0, 0, 0, 0, 0, 0, 0\n0, 2, 0, 0, 3, 0]"] ;
236 -> 237 ;
238 [label="gini = 0.48\nsamples = 5\nvalue = [0, 0, 0, 0, 0, 0, 0, 0, 0, 0, 0, 0, 0, 0\n0, 2, 0, 0, 3, 0]"] ;
236 -> 238 ;
239 [label="X[8] <= 3.5\ngini = 0.375\nsamples = 4\nvalue = [0, 0, 0, 0, 0, 0, 0, 0, 0, 0, 0, 0, 0, 0\n0, 1, 0, 0, 3, 0]"] ;
235 -> 239 ;
240 [label="gini = 0.0\nsamples = 1\nvalue = [0, 0, 0, 0, 0, 0, 0, 0, 0, 0, 0, 0, 0, 0\n0, 0, 0, 0, 1, 0]"] ;
239 -> 240 ;
241 [label="gini = 0.444\nsamples = 3\nvalue = [0, 0, 0, 0, 0, 0, 0, 0, 0, 0, 0, 0, 0, 0\n0, 1, 0, 0, 2, 0]"] ;
239 -> 241 ;
242 [label="X[9] <= 2.5\ngini = 0.5\nsamples = 6\nvalue = [0, 0, 0, 0, 0, 0, 0, 0, 0, 0, 0, 0, 0, 0\n0, 3, 0, 0, 3, 0]"] ;
234 -> 242 ;
243 [label="gini = 0.48\nsamples = 5\nvalue = [0, 0, 0, 0, 0, 0, 0, 0, 0, 0, 0, 0, 0, 0\n0, 2, 0, 0, 3, 0]"] ;
242 -> 243 ;
244 [label="gini = 0.0\nsamples = 1\nvalue = [0, 0, 0, 0, 0, 0, 0, 0, 0, 0, 0, 0, 0, 0\n0, 1, 0, 0, 0, 0]"] ;
242 -> 244 ;
245 [label="X[9] <= 2.5\ngini = 0.375\nsamples = 12\nvalue = [0, 0, 0, 0, 0, 0, 0, 0, 0, 0, 0, 0, 0, 0\n0, 9, 0, 0, 3, 0]"] ;
221 -> 245 ;
246 [label="gini = 0.0\nsamples = 8\nvalue = [0, 0, 0, 0, 0, 0, 0, 0, 0, 0, 0, 0, 0, 0\n0, 8, 0, 0, 0, 0]"] ;
245 -> 246 ;
247 [label="X[10] <= 5.5\ngini = 0.375\nsamples = 4\nvalue = [0, 0, 0, 0, 0, 0, 0, 0, 0, 0, 0, 0, 0, 0\n0, 1, 0, 0, 3, 0]"] ;
245 -> 247 ;
248 [label="gini = 0.0\nsamples = 2\nvalue = [0, 0, 0, 0, 0, 0, 0, 0, 0, 0, 0, 0, 0, 0\n0, 0, 0, 0, 2, 0]"] ;
247 -> 248 ;
249 [label="gini = 0.5\nsamples = 2\nvalue = [0, 0, 0, 0, 0, 0, 0, 0, 0, 0, 0, 0, 0, 0\n0, 1, 0, 0, 1, 0]"] ;
247 -> 249 ;
250 [label="X[7] <= 6.5\ngini = 0.436\nsamples = 106\nvalue = [0, 0, 0, 0, 0, 0, 0, 0, 0, 0, 0, 0, 0, 0\n0, 34, 0, 0, 72, 0]"] ;
210 -> 250 ;
251 [label="X[2] <= 0.5\ngini = 0.49\nsamples = 79\nvalue = [0, 0, 0, 0, 0, 0, 0, 0, 0, 0, 0, 0, 0, 0\n0, 34, 0, 0, 45, 0]"] ;
250 -> 251 ;
252 [label="X[9] <= 1.5\ngini = 0.5\nsamples = 70\nvalue = [0, 0, 0, 0, 0, 0, 0, 0, 0, 0, 0, 0, 0, 0\n0, 34, 0, 0, 36, 0]"] ;
251 -> 252 ;
253 [label="gini = 0.0\nsamples = 3\nvalue = [0, 0, 0, 0, 0, 0, 0, 0, 0, 0, 0, 0, 0, 0\n0, 3, 0, 0, 0, 0]"] ;
252 -> 253 ;
254 [label="X[5] <= 9.5\ngini = 0.497\nsamples = 67\nvalue = [0, 0, 0, 0, 0, 0, 0, 0, 0, 0, 0, 0, 0, 0\n0, 31, 0, 0, 36, 0]"] ;
252 -> 254 ;
255 [label="X[9] <= 2.5\ngini = 0.278\nsamples = 6\nvalue = [0, 0, 0, 0, 0, 0, 0, 0, 0, 0, 0, 0, 0, 0\n0, 1, 0, 0, 5, 0]"] ;
254 -> 255 ;
256 [label="gini = 0.32\nsamples = 5\nvalue = [0, 0, 0, 0, 0, 0, 0, 0, 0, 0, 0, 0, 0, 0\n0, 1, 0, 0, 4, 0]"] ;
255 -> 256 ;
257 [label="gini = 0.0\nsamples = 1\nvalue = [0, 0, 0, 0, 0, 0, 0, 0, 0, 0, 0, 0, 0, 0\n0, 0, 0, 0, 1, 0]"] ;
255 -> 257 ;
258 [label="X[9] <= 2.5\ngini = 0.5\nsamples = 61\nvalue = [0, 0, 0, 0, 0, 0, 0, 0, 0, 0, 0, 0, 0, 0\n0, 30, 0, 0, 31, 0]"] ;
254 -> 258 ;
259 [label="X[5] <= 11.5\ngini = 0.489\nsamples = 40\nvalue = [0, 0, 0, 0, 0, 0, 0, 0, 0, 0, 0, 0, 0, 0\n0, 17, 0, 0, 23, 0]"] ;
258 -> 259 ;
260 [label="X[7] <= 4.5\ngini = 0.5\nsamples = 26\nvalue = [0, 0, 0, 0, 0, 0, 0, 0, 0, 0, 0, 0, 0, 0\n0, 13, 0, 0, 13, 0]"] ;
259 -> 260 ;
261 [label="gini = 0.408\nsamples = 7\nvalue = [0, 0, 0, 0, 0, 0, 0, 0, 0, 0, 0, 0, 0, 0\n0, 2, 0, 0, 5, 0]"] ;
260 -> 261 ;
262 [label="X[10] <= 8.5\ngini = 0.488\nsamples = 19\nvalue = [0, 0, 0, 0, 0, 0, 0, 0, 0, 0, 0, 0, 0, 0\n0, 11, 0, 0, 8, 0]"] ;
260 -> 262 ;
263 [label="X[8] <= 3.5\ngini = 0.48\nsamples = 10\nvalue = [0, 0, 0, 0, 0, 0, 0, 0, 0, 0, 0, 0, 0, 0\n0, 6, 0, 0, 4, 0]"] ;
262 -> 263 ;
264 [label="gini = 0.49\nsamples = 7\nvalue = [0, 0, 0, 0, 0, 0, 0, 0, 0, 0, 0, 0, 0, 0\n0, 4, 0, 0, 3, 0]"] ;
263 -> 264 ;
265 [label="gini = 0.444\nsamples = 3\nvalue = [0, 0, 0, 0, 0, 0, 0, 0, 0, 0, 0, 0, 0, 0\n0, 2, 0, 0, 1, 0]"] ;
263 -> 265 ;
266 [label="X[8] <= 3.5\ngini = 0.494\nsamples = 9\nvalue = [0, 0, 0, 0, 0, 0, 0, 0, 0, 0, 0, 0, 0, 0\n0, 5, 0, 0, 4, 0]"] ;
262 -> 266 ;
267 [label="gini = 0.444\nsamples = 3\nvalue = [0, 0, 0, 0, 0, 0, 0, 0, 0, 0, 0, 0, 0, 0\n0, 2, 0, 0, 1, 0]"] ;
266 -> 267 ;
268 [label="gini = 0.5\nsamples = 6\nvalue = [0, 0, 0, 0, 0, 0, 0, 0, 0, 0, 0, 0, 0, 0\n0, 3, 0, 0, 3, 0]"] ;
266 -> 268 ;
269 [label="X[10] <= 10.5\ngini = 0.408\nsamples = 14\nvalue = [0, 0, 0, 0, 0, 0, 0, 0, 0, 0, 0, 0, 0, 0\n0, 4, 0, 0, 10, 0]"] ;
259 -> 269 ;
270 [label="X[10] <= 9.5\ngini = 0.32\nsamples = 10\nvalue = [0, 0, 0, 0, 0, 0, 0, 0, 0, 0, 0, 0, 0, 0\n0, 2, 0, 0, 8, 0]"] ;
269 -> 270 ;
271 [label="X[7] <= 5.5\ngini = 0.346\nsamples = 9\nvalue = [0, 0, 0, 0, 0, 0, 0, 0, 0, 0, 0, 0, 0, 0\n0, 2, 0, 0, 7, 0]"] ;
270 -> 271 ;
272 [label="gini = 0.375\nsamples = 4\nvalue = [0, 0, 0, 0, 0, 0, 0, 0, 0, 0, 0, 0, 0, 0\n0, 1, 0, 0, 3, 0]"] ;
271 -> 272 ;
273 [label="gini = 0.32\nsamples = 5\nvalue = [0, 0, 0, 0, 0, 0, 0, 0, 0, 0, 0, 0, 0, 0\n0, 1, 0, 0, 4, 0]"] ;
271 -> 273 ;
274 [label="gini = 0.0\nsamples = 1\nvalue = [0, 0, 0, 0, 0, 0, 0, 0, 0, 0, 0, 0, 0, 0\n0, 0, 0, 0, 1, 0]"] ;
270 -> 274 ;
275 [label="gini = 0.5\nsamples = 4\nvalue = [0, 0, 0, 0, 0, 0, 0, 0, 0, 0, 0, 0, 0, 0\n0, 2, 0, 0, 2, 0]"] ;
269 -> 275 ;
276 [label="X[5] <= 11.5\ngini = 0.472\nsamples = 21\nvalue = [0, 0, 0, 0, 0, 0, 0, 0, 0, 0, 0, 0, 0, 0\n0, 13, 0, 0, 8, 0]"] ;
258 -> 276 ;
277 [label="X[10] <= 9.5\ngini = 0.494\nsamples = 9\nvalue = [0, 0, 0, 0, 0, 0, 0, 0, 0, 0, 0, 0, 0, 0\n0, 4, 0, 0, 5, 0]"] ;
276 -> 277 ;
278 [label="X[7] <= 5.5\ngini = 0.32\nsamples = 5\nvalue = [0, 0, 0, 0, 0, 0, 0, 0, 0, 0, 0, 0, 0, 0\n0, 4, 0, 0, 1, 0]"] ;
277 -> 278 ;
279 [label="gini = 0.0\nsamples = 3\nvalue = [0, 0, 0, 0, 0, 0, 0, 0, 0, 0, 0, 0, 0, 0\n0, 3, 0, 0, 0, 0]"] ;
278 -> 279 ;
280 [label="gini = 0.5\nsamples = 2\nvalue = [0, 0, 0, 0, 0, 0, 0, 0, 0, 0, 0, 0, 0, 0\n0, 1, 0, 0, 1, 0]"] ;
278 -> 280 ;
281 [label="gini = 0.0\nsamples = 4\nvalue = [0, 0, 0, 0, 0, 0, 0, 0, 0, 0, 0, 0, 0, 0\n0, 0, 0, 0, 4, 0]"] ;
277 -> 281 ;
282 [label="X[7] <= 4.5\ngini = 0.375\nsamples = 12\nvalue = [0, 0, 0, 0, 0, 0, 0, 0, 0, 0, 0, 0, 0, 0\n0, 9, 0, 0, 3, 0]"] ;
276 -> 282 ;
283 [label="gini = 0.0\nsamples = 5\nvalue = [0, 0, 0, 0, 0, 0, 0, 0, 0, 0, 0, 0, 0, 0\n0, 5, 0, 0, 0, 0]"] ;
282 -> 283 ;
284 [label="X[10] <= 8.5\ngini = 0.49\nsamples = 7\nvalue = [0, 0, 0, 0, 0, 0, 0, 0, 0, 0, 0, 0, 0, 0\n0, 4, 0, 0, 3, 0]"] ;
282 -> 284 ;
285 [label="gini = 0.444\nsamples = 3\nvalue = [0, 0, 0, 0, 0, 0, 0, 0, 0, 0, 0, 0, 0, 0\n0, 2, 0, 0, 1, 0]"] ;
284 -> 285 ;
286 [label="gini = 0.5\nsamples = 4\nvalue = [0, 0, 0, 0, 0, 0, 0, 0, 0, 0, 0, 0, 0, 0\n0, 2, 0, 0, 2, 0]"] ;
284 -> 286 ;
287 [label="gini = 0.0\nsamples = 9\nvalue = [0, 0, 0, 0, 0, 0, 0, 0, 0, 0, 0, 0, 0, 0\n0, 0, 0, 0, 9, 0]"] ;
251 -> 287 ;
288 [label="gini = 0.0\nsamples = 27\nvalue = [0, 0, 0, 0, 0, 0, 0, 0, 0, 0, 0, 0, 0, 0\n0, 0, 0, 0, 27, 0]"] ;
250 -> 288 ;
289 [label="X[8] <= 8.5\ngini = 0.128\nsamples = 29\nvalue = [0, 0, 0, 0, 0, 0, 0, 0, 0, 0, 0, 0, 0, 0\n0, 2, 0, 0, 27, 0]"] ;
209 -> 289 ;
290 [label="gini = 0.0\nsamples = 26\nvalue = [0, 0, 0, 0, 0, 0, 0, 0, 0, 0, 0, 0, 0, 0\n0, 0, 0, 0, 26, 0]"] ;
289 -> 290 ;
291 [label="X[9] <= 2.5\ngini = 0.444\nsamples = 3\nvalue = [0, 0, 0, 0, 0, 0, 0, 0, 0, 0, 0, 0, 0, 0\n0, 2, 0, 0, 1, 0]"] ;
289 -> 291 ;
292 [label="gini = 0.0\nsamples = 2\nvalue = [0, 0, 0, 0, 0, 0, 0, 0, 0, 0, 0, 0, 0, 0\n0, 2, 0, 0, 0, 0]"] ;
291 -> 292 ;
293 [label="gini = 0.0\nsamples = 1\nvalue = [0, 0, 0, 0, 0, 0, 0, 0, 0, 0, 0, 0, 0, 0\n0, 0, 0, 0, 1, 0]"] ;
291 -> 293 ;
294 [label="X[2] <= 0.5\ngini = 0.85\nsamples = 789\nvalue = [24, 2, 19, 0, 0, 0, 0, 76, 9, 0, 26, 0, 67\n0, 175, 39, 83, 34, 35, 200]"] ;
28 -> 294 ;
295 [label="X[6] <= 12.5\ngini = 0.774\nsamples = 612\nvalue = [2, 2, 19, 0, 0, 0, 0, 76, 0, 0, 0, 0, 18, 0\n175, 0, 83, 11, 26, 200]"] ;
294 -> 295 ;
296 [label="X[10] <= 1.5\ngini = 0.463\nsamples = 162\nvalue = [0, 0, 0, 0, 0, 0, 0, 0, 0, 0, 0, 0, 0, 0\n0, 0, 59, 0, 0, 103]"] ;
295 -> 296 ;
297 [label="X[8] <= 6.5\ngini = 0.498\nsamples = 111\nvalue = [0, 0, 0, 0, 0, 0, 0, 0, 0, 0, 0, 0, 0, 0\n0, 0, 59, 0, 0, 52]"] ;
296 -> 297 ;
298 [label="X[7] <= 10.5\ngini = 0.288\nsamples = 63\nvalue = [0, 0, 0, 0, 0, 0, 0, 0, 0, 0, 0, 0, 0, 0\n0, 0, 52, 0, 0, 11]"] ;
297 -> 298 ;
299 [label="gini = 0.0\nsamples = 29\nvalue = [0, 0, 0, 0, 0, 0, 0, 0, 0, 0, 0, 0, 0, 0\n0, 0, 29, 0, 0, 0]"] ;
298 -> 299 ;
300 [label="X[9] <= 1.5\ngini = 0.438\nsamples = 34\nvalue = [0, 0, 0, 0, 0, 0, 0, 0, 0, 0, 0, 0, 0, 0\n0, 0, 23, 0, 0, 11]"] ;
298 -> 300 ;
301 [label="gini = 0.0\nsamples = 1\nvalue = [0, 0, 0, 0, 0, 0, 0, 0, 0, 0, 0, 0, 0, 0\n0, 0, 0, 0, 0, 1]"] ;
300 -> 301 ;
302 [label="X[5] <= 9.5\ngini = 0.422\nsamples = 33\nvalue = [0, 0, 0, 0, 0, 0, 0, 0, 0, 0, 0, 0, 0, 0\n0, 0, 23, 0, 0, 10]"] ;
300 -> 302 ;
303 [label="X[5] <= 6.5\ngini = 0.476\nsamples = 23\nvalue = [0, 0, 0, 0, 0, 0, 0, 0, 0, 0, 0, 0, 0, 0\n0, 0, 14, 0, 0, 9]"] ;
302 -> 303 ;
304 [label="X[9] <= 2.5\ngini = 0.48\nsamples = 5\nvalue = [0, 0, 0, 0, 0, 0, 0, 0, 0, 0, 0, 0, 0, 0\n0, 0, 2, 0, 0, 3]"] ;
303 -> 304 ;
305 [label="gini = 0.0\nsamples = 1\nvalue = [0, 0, 0, 0, 0, 0, 0, 0, 0, 0, 0, 0, 0, 0\n0, 0, 0, 0, 0, 1]"] ;
304 -> 305 ;
306 [label="gini = 0.5\nsamples = 4\nvalue = [0, 0, 0, 0, 0, 0, 0, 0, 0, 0, 0, 0, 0, 0\n0, 0, 2, 0, 0, 2]"] ;
304 -> 306 ;
307 [label="X[9] <= 2.5\ngini = 0.444\nsamples = 18\nvalue = [0, 0, 0, 0, 0, 0, 0, 0, 0, 0, 0, 0, 0, 0\n0, 0, 12, 0, 0, 6]"] ;
303 -> 307 ;
308 [label="X[8] <= 3.5\ngini = 0.48\nsamples = 15\nvalue = [0, 0, 0, 0, 0, 0, 0, 0, 0, 0, 0, 0, 0, 0\n0, 0, 9, 0, 0, 6]"] ;
307 -> 308 ;
309 [label="gini = 0.48\nsamples = 5\nvalue = [0, 0, 0, 0, 0, 0, 0, 0, 0, 0, 0, 0, 0, 0\n0, 0, 2, 0, 0, 3]"] ;
308 -> 309 ;
310 [label="X[8] <= 4.5\ngini = 0.42\nsamples = 10\nvalue = [0, 0, 0, 0, 0, 0, 0, 0, 0, 0, 0, 0, 0, 0\n0, 0, 7, 0, 0, 3]"] ;
308 -> 310 ;
311 [label="gini = 0.375\nsamples = 4\nvalue = [0, 0, 0, 0, 0, 0, 0, 0, 0, 0, 0, 0, 0, 0\n0, 0, 3, 0, 0, 1]"] ;
310 -> 311 ;
312 [label="gini = 0.444\nsamples = 6\nvalue = [0, 0, 0, 0, 0, 0, 0, 0, 0, 0, 0, 0, 0, 0\n0, 0, 4, 0, 0, 2]"] ;
310 -> 312 ;
313 [label="gini = 0.0\nsamples = 3\nvalue = [0, 0, 0, 0, 0, 0, 0, 0, 0, 0, 0, 0, 0, 0\n0, 0, 3, 0, 0, 0]"] ;
307 -> 313 ;
314 [label="X[9] <= 2.5\ngini = 0.18\nsamples = 10\nvalue = [0, 0, 0, 0, 0, 0, 0, 0, 0, 0, 0, 0, 0, 0\n0, 0, 9, 0, 0, 1]"] ;
302 -> 314 ;
315 [label="gini = 0.278\nsamples = 6\nvalue = [0, 0, 0, 0, 0, 0, 0, 0, 0, 0, 0, 0, 0, 0\n0, 0, 5, 0, 0, 1]"] ;
314 -> 315 ;
316 [label="gini = 0.0\nsamples = 4\nvalue = [0, 0, 0, 0, 0, 0, 0, 0, 0, 0, 0, 0, 0, 0\n0, 0, 4, 0, 0, 0]"] ;
314 -> 316 ;
317 [label="X[6] <= 11.5\ngini = 0.249\nsamples = 48\nvalue = [0, 0, 0, 0, 0, 0, 0, 0, 0, 0, 0, 0, 0, 0\n0, 0, 7, 0, 0, 41]"] ;
297 -> 317 ;
318 [label="X[5] <= 2.5\ngini = 0.393\nsamples = 26\nvalue = [0, 0, 0, 0, 0, 0, 0, 0, 0, 0, 0, 0, 0, 0\n0, 0, 7, 0, 0, 19]"] ;
317 -> 318 ;
319 [label="gini = 0.0\nsamples = 9\nvalue = [0, 0, 0, 0, 0, 0, 0, 0, 0, 0, 0, 0, 0, 0\n0, 0, 0, 0, 0, 9]"] ;
318 -> 319 ;
320 [label="X[9] <= 1.5\ngini = 0.484\nsamples = 17\nvalue = [0, 0, 0, 0, 0, 0, 0, 0, 0, 0, 0, 0, 0, 0\n0, 0, 7, 0, 0, 10]"] ;
318 -> 320 ;
321 [label="gini = 0.0\nsamples = 1\nvalue = [0, 0, 0, 0, 0, 0, 0, 0, 0, 0, 0, 0, 0, 0\n0, 0, 0, 0, 0, 1]"] ;
320 -> 321 ;
322 [label="X[9] <= 2.5\ngini = 0.492\nsamples = 16\nvalue = [0, 0, 0, 0, 0, 0, 0, 0, 0, 0, 0, 0, 0, 0\n0, 0, 7, 0, 0, 9]"] ;
320 -> 322 ;
323 [label="X[5] <= 3.5\ngini = 0.5\nsamples = 10\nvalue = [0, 0, 0, 0, 0, 0, 0, 0, 0, 0, 0, 0, 0, 0\n0, 0, 5, 0, 0, 5]"] ;
322 -> 323 ;
324 [label="gini = 0.444\nsamples = 3\nvalue = [0, 0, 0, 0, 0, 0, 0, 0, 0, 0, 0, 0, 0, 0\n0, 0, 2, 0, 0, 1]"] ;
323 -> 324 ;
325 [label="gini = 0.49\nsamples = 7\nvalue = [0, 0, 0, 0, 0, 0, 0, 0, 0, 0, 0, 0, 0, 0\n0, 0, 3, 0, 0, 4]"] ;
323 -> 325 ;
326 [label="X[5] <= 3.5\ngini = 0.444\nsamples = 6\nvalue = [0, 0, 0, 0, 0, 0, 0, 0, 0, 0, 0, 0, 0, 0\n0, 0, 2, 0, 0, 4]"] ;
322 -> 326 ;
327 [label="gini = 0.0\nsamples = 2\nvalue = [0, 0, 0, 0, 0, 0, 0, 0, 0, 0, 0, 0, 0, 0\n0, 0, 0, 0, 0, 2]"] ;
326 -> 327 ;
328 [label="gini = 0.5\nsamples = 4\nvalue = [0, 0, 0, 0, 0, 0, 0, 0, 0, 0, 0, 0, 0, 0\n0, 0, 2, 0, 0, 2]"] ;
326 -> 328 ;
329 [label="gini = 0.0\nsamples = 22\nvalue = [0, 0, 0, 0, 0, 0, 0, 0, 0, 0, 0, 0, 0, 0\n0, 0, 0, 0, 0, 22]"] ;
317 -> 329 ;
330 [label="gini = 0.0\nsamples = 51\nvalue = [0, 0, 0, 0, 0, 0, 0, 0, 0, 0, 0, 0, 0, 0\n0, 0, 0, 0, 0, 51]"] ;
296 -> 330 ;
331 [label="X[8] <= 7.5\ngini = 0.764\nsamples = 450\nvalue = [2, 2, 19, 0, 0, 0, 0, 76, 0, 0, 0, 0, 18, 0\n175, 0, 24, 11, 26, 97]"] ;
295 -> 331 ;
332 [label="X[10] <= 3.5\ngini = 0.668\nsamples = 299\nvalue = [2, 2, 19, 0, 0, 0, 0, 71, 0, 0, 0, 0, 0, 0\n152, 0, 7, 0, 19, 27]"] ;
331 -> 332 ;
333 [label="X[9] <= 2.5\ngini = 0.58\nsamples = 261\nvalue = [2, 2, 19, 0, 0, 0, 0, 71, 0, 0, 0, 0, 0, 0\n152, 0, 7, 0, 0, 8]"] ;
332 -> 333 ;
334 [label="X[10] <= 2.5\ngini = 0.647\nsamples = 179\nvalue = [2, 2, 16, 0, 0, 0, 0, 71, 0, 0, 0, 0, 0, 0\n77, 0, 5, 0, 0, 6]"] ;
333 -> 334 ;
335 [label="X[7] <= 12.5\ngini = 0.579\nsamples = 122\nvalue = [2, 2, 16, 0, 0, 0, 0, 71, 0, 0, 0, 0, 0, 0\n31, 0, 0, 0, 0, 0]"] ;
334 -> 335 ;
336 [label="X[8] <= 6.5\ngini = 0.508\nsamples = 94\nvalue = [2, 2, 15, 0, 0, 0, 0, 63, 0, 0, 0, 0, 0, 0\n12, 0, 0, 0, 0, 0]"] ;
335 -> 336 ;
337 [label="X[9] <= 1.5\ngini = 0.405\nsamples = 74\nvalue = [2, 2, 15, 0, 0, 0, 0, 55, 0, 0, 0, 0, 0, 0\n0, 0, 0, 0, 0, 0]"] ;
336 -> 337 ;
338 [label="X[10] <= 1.5\ngini = 0.56\nsamples = 10\nvalue = [2, 2, 6, 0, 0, 0, 0, 0, 0, 0, 0, 0, 0, 0\n0, 0, 0, 0, 0, 0]"] ;
337 -> 338 ;
339 [label="gini = 0.0\nsamples = 2\nvalue = [2, 0, 0, 0, 0, 0, 0, 0, 0, 0, 0, 0, 0, 0\n0, 0, 0, 0, 0, 0]"] ;
338 -> 339 ;
340 [label="X[7] <= 11.5\ngini = 0.375\nsamples = 8\nvalue = [0, 2, 6, 0, 0, 0, 0, 0, 0, 0, 0, 0, 0, 0\n0, 0, 0, 0, 0, 0]"] ;
338 -> 340 ;
341 [label="X[8] <= 4.0\ngini = 0.444\nsamples = 3\nvalue = [0, 2, 1, 0, 0, 0, 0, 0, 0, 0, 0, 0, 0, 0\n0, 0, 0, 0, 0, 0]"] ;
340 -> 341 ;
342 [label="gini = 0.5\nsamples = 2\nvalue = [0, 1, 1, 0, 0, 0, 0, 0, 0, 0, 0, 0, 0, 0\n0, 0, 0, 0, 0, 0]"] ;
341 -> 342 ;
343 [label="gini = 0.0\nsamples = 1\nvalue = [0, 1, 0, 0, 0, 0, 0, 0, 0, 0, 0, 0, 0, 0\n0, 0, 0, 0, 0, 0]"] ;
341 -> 343 ;
344 [label="gini = 0.0\nsamples = 5\nvalue = [0, 0, 5, 0, 0, 0, 0, 0, 0, 0, 0, 0, 0, 0\n0, 0, 0, 0, 0, 0]"] ;
340 -> 344 ;
345 [label="X[10] <= 1.5\ngini = 0.242\nsamples = 64\nvalue = [0, 0, 9, 0, 0, 0, 0, 55, 0, 0, 0, 0, 0, 0\n0, 0, 0, 0, 0, 0]"] ;
337 -> 345 ;
346 [label="X[8] <= 5.5\ngini = 0.453\nsamples = 26\nvalue = [0, 0, 9, 0, 0, 0, 0, 17, 0, 0, 0, 0, 0, 0\n0, 0, 0, 0, 0, 0]"] ;
345 -> 346 ;
347 [label="X[8] <= 2.5\ngini = 0.49\nsamples = 21\nvalue = [0, 0, 9, 0, 0, 0, 0, 12, 0, 0, 0, 0, 0, 0\n0, 0, 0, 0, 0, 0]"] ;
346 -> 347 ;
348 [label="gini = 0.48\nsamples = 5\nvalue = [0, 0, 3, 0, 0, 0, 0, 2, 0, 0, 0, 0, 0, 0\n0, 0, 0, 0, 0, 0]"] ;
347 -> 348 ;
349 [label="X[8] <= 4.5\ngini = 0.469\nsamples = 16\nvalue = [0, 0, 6, 0, 0, 0, 0, 10, 0, 0, 0, 0, 0, 0\n0, 0, 0, 0, 0, 0]"] ;
347 -> 349 ;
350 [label="X[8] <= 3.5\ngini = 0.459\nsamples = 14\nvalue = [0, 0, 5, 0, 0, 0, 0, 9, 0, 0, 0, 0, 0, 0\n0, 0, 0, 0, 0, 0]"] ;
349 -> 350 ;
351 [label="gini = 0.444\nsamples = 6\nvalue = [0, 0, 2, 0, 0, 0, 0, 4, 0, 0, 0, 0, 0, 0\n0, 0, 0, 0, 0, 0]"] ;
350 -> 351 ;
352 [label="gini = 0.469\nsamples = 8\nvalue = [0, 0, 3, 0, 0, 0, 0, 5, 0, 0, 0, 0, 0, 0\n0, 0, 0, 0, 0, 0]"] ;
350 -> 352 ;
353 [label="gini = 0.5\nsamples = 2\nvalue = [0, 0, 1, 0, 0, 0, 0, 1, 0, 0, 0, 0, 0, 0\n0, 0, 0, 0, 0, 0]"] ;
349 -> 353 ;
354 [label="gini = 0.0\nsamples = 5\nvalue = [0, 0, 0, 0, 0, 0, 0, 5, 0, 0, 0, 0, 0, 0\n0, 0, 0, 0, 0, 0]"] ;
346 -> 354 ;
355 [label="gini = 0.0\nsamples = 38\nvalue = [0, 0, 0, 0, 0, 0, 0, 38, 0, 0, 0, 0, 0, 0\n0, 0, 0, 0, 0, 0]"] ;
345 -> 355 ;
356 [label="X[10] <= 1.5\ngini = 0.48\nsamples = 20\nvalue = [0, 0, 0, 0, 0, 0, 0, 8, 0, 0, 0, 0, 0, 0\n12, 0, 0, 0, 0, 0]"] ;
336 -> 356 ;
357 [label="gini = 0.0\nsamples = 5\nvalue = [0, 0, 0, 0, 0, 0, 0, 5, 0, 0, 0, 0, 0, 0\n0, 0, 0, 0, 0, 0]"] ;
356 -> 357 ;
358 [label="X[5] <= 6.5\ngini = 0.32\nsamples = 15\nvalue = [0, 0, 0, 0, 0, 0, 0, 3, 0, 0, 0, 0, 0, 0\n12, 0, 0, 0, 0, 0]"] ;
356 -> 358 ;
359 [label="gini = 0.42\nsamples = 10\nvalue = [0, 0, 0, 0, 0, 0, 0, 3, 0, 0, 0, 0, 0, 0\n7, 0, 0, 0, 0, 0]"] ;
358 -> 359 ;
360 [label="gini = 0.0\nsamples = 5\nvalue = [0, 0, 0, 0, 0, 0, 0, 0, 0, 0, 0, 0, 0, 0\n5, 0, 0, 0, 0, 0]"] ;
358 -> 360 ;
361 [label="X[8] <= 6.5\ngini = 0.457\nsamples = 28\nvalue = [0, 0, 1, 0, 0, 0, 0, 8, 0, 0, 0, 0, 0, 0\n19, 0, 0, 0, 0, 0]"] ;
335 -> 361 ;
362 [label="X[9] <= 1.5\ngini = 0.507\nsamples = 23\nvalue = [0, 0, 1, 0, 0, 0, 0, 8, 0, 0, 0, 0, 0, 0\n14, 0, 0, 0, 0, 0]"] ;
361 -> 362 ;
363 [label="gini = 0.0\nsamples = 1\nvalue = [0, 0, 1, 0, 0, 0, 0, 0, 0, 0, 0, 0, 0, 0\n0, 0, 0, 0, 0, 0]"] ;
362 -> 363 ;
364 [label="X[8] <= 4.5\ngini = 0.463\nsamples = 22\nvalue = [0, 0, 0, 0, 0, 0, 0, 8, 0, 0, 0, 0, 0, 0\n14, 0, 0, 0, 0, 0]"] ;
362 -> 364 ;
365 [label="X[8] <= 2.5\ngini = 0.484\nsamples = 17\nvalue = [0, 0, 0, 0, 0, 0, 0, 7, 0, 0, 0, 0, 0, 0\n10, 0, 0, 0, 0, 0]"] ;
364 -> 365 ;
366 [label="gini = 0.469\nsamples = 8\nvalue = [0, 0, 0, 0, 0, 0, 0, 3, 0, 0, 0, 0, 0, 0\n5, 0, 0, 0, 0, 0]"] ;
365 -> 366 ;
367 [label="X[5] <= 10.5\ngini = 0.494\nsamples = 9\nvalue = [0, 0, 0, 0, 0, 0, 0, 4, 0, 0, 0, 0, 0, 0\n5, 0, 0, 0, 0, 0]"] ;
365 -> 367 ;
368 [label="gini = 0.48\nsamples = 5\nvalue = [0, 0, 0, 0, 0, 0, 0, 2, 0, 0, 0, 0, 0, 0\n3, 0, 0, 0, 0, 0]"] ;
367 -> 368 ;
369 [label="gini = 0.5\nsamples = 4\nvalue = [0, 0, 0, 0, 0, 0, 0, 2, 0, 0, 0, 0, 0, 0\n2, 0, 0, 0, 0, 0]"] ;
367 -> 369 ;
370 [label="X[8] <= 5.5\ngini = 0.32\nsamples = 5\nvalue = [0, 0, 0, 0, 0, 0, 0, 1, 0, 0, 0, 0, 0, 0\n4, 0, 0, 0, 0, 0]"] ;
364 -> 370 ;
371 [label="gini = 0.0\nsamples = 3\nvalue = [0, 0, 0, 0, 0, 0, 0, 0, 0, 0, 0, 0, 0, 0\n3, 0, 0, 0, 0, 0]"] ;
370 -> 371 ;
372 [label="gini = 0.5\nsamples = 2\nvalue = [0, 0, 0, 0, 0, 0, 0, 1, 0, 0, 0, 0, 0, 0\n1, 0, 0, 0, 0, 0]"] ;
370 -> 372 ;
373 [label="gini = 0.0\nsamples = 5\nvalue = [0, 0, 0, 0, 0, 0, 0, 0, 0, 0, 0, 0, 0, 0\n5, 0, 0, 0, 0, 0]"] ;
361 -> 373 ;
374 [label="X[8] <= 6.5\ngini = 0.33\nsamples = 57\nvalue = [0, 0, 0, 0, 0, 0, 0, 0, 0, 0, 0, 0, 0, 0\n46, 0, 5, 0, 0, 6]"] ;
334 -> 374 ;
375 [label="gini = 0.0\nsamples = 46\nvalue = [0, 0, 0, 0, 0, 0, 0, 0, 0, 0, 0, 0, 0, 0\n46, 0, 0, 0, 0, 0]"] ;
374 -> 375 ;
376 [label="X[5] <= 6.5\ngini = 0.496\nsamples = 11\nvalue = [0, 0, 0, 0, 0, 0, 0, 0, 0, 0, 0, 0, 0, 0\n0, 0, 5, 0, 0, 6]"] ;
374 -> 376 ;
377 [label="gini = 0.0\nsamples = 5\nvalue = [0, 0, 0, 0, 0, 0, 0, 0, 0, 0, 0, 0, 0, 0\n0, 0, 5, 0, 0, 0]"] ;
376 -> 377 ;
378 [label="gini = 0.0\nsamples = 6\nvalue = [0, 0, 0, 0, 0, 0, 0, 0, 0, 0, 0, 0, 0, 0\n0, 0, 0, 0, 0, 6]"] ;
376 -> 378 ;
379 [label="X[8] <= 6.5\ngini = 0.161\nsamples = 82\nvalue = [0, 0, 3, 0, 0, 0, 0, 0, 0, 0, 0, 0, 0, 0\n75, 0, 2, 0, 0, 2]"] ;
333 -> 379 ;
380 [label="X[10] <= 1.5\ngini = 0.077\nsamples = 75\nvalue = [0, 0, 3, 0, 0, 0, 0, 0, 0, 0, 0, 0, 0, 0\n72, 0, 0, 0, 0, 0]"] ;
379 -> 380 ;
381 [label="X[6] <= 13.5\ngini = 0.255\nsamples = 20\nvalue = [0, 0, 3, 0, 0, 0, 0, 0, 0, 0, 0, 0, 0, 0\n17, 0, 0, 0, 0, 0]"] ;
380 -> 381 ;
382 [label="X[5] <= 10.5\ngini = 0.42\nsamples = 10\nvalue = [0, 0, 3, 0, 0, 0, 0, 0, 0, 0, 0, 0, 0, 0\n7, 0, 0, 0, 0, 0]"] ;
381 -> 382 ;
383 [label="X[8] <= 5.5\ngini = 0.469\nsamples = 8\nvalue = [0, 0, 3, 0, 0, 0, 0, 0, 0, 0, 0, 0, 0, 0\n5, 0, 0, 0, 0, 0]"] ;
382 -> 383 ;
384 [label="X[8] <= 4.5\ngini = 0.444\nsamples = 6\nvalue = [0, 0, 2, 0, 0, 0, 0, 0, 0, 0, 0, 0, 0, 0\n4, 0, 0, 0, 0, 0]"] ;
383 -> 384 ;
385 [label="X[5] <= 9.5\ngini = 0.48\nsamples = 5\nvalue = [0, 0, 2, 0, 0, 0, 0, 0, 0, 0, 0, 0, 0, 0\n3, 0, 0, 0, 0, 0]"] ;
384 -> 385 ;
386 [label="gini = 0.5\nsamples = 2\nvalue = [0, 0, 1, 0, 0, 0, 0, 0, 0, 0, 0, 0, 0, 0\n1, 0, 0, 0, 0, 0]"] ;
385 -> 386 ;
387 [label="gini = 0.444\nsamples = 3\nvalue = [0, 0, 1, 0, 0, 0, 0, 0, 0, 0, 0, 0, 0, 0\n2, 0, 0, 0, 0, 0]"] ;
385 -> 387 ;
388 [label="gini = 0.0\nsamples = 1\nvalue = [0, 0, 0, 0, 0, 0, 0, 0, 0, 0, 0, 0, 0, 0\n1, 0, 0, 0, 0, 0]"] ;
384 -> 388 ;
389 [label="gini = 0.5\nsamples = 2\nvalue = [0, 0, 1, 0, 0, 0, 0, 0, 0, 0, 0, 0, 0, 0\n1, 0, 0, 0, 0, 0]"] ;
383 -> 389 ;
390 [label="gini = 0.0\nsamples = 2\nvalue = [0, 0, 0, 0, 0, 0, 0, 0, 0, 0, 0, 0, 0, 0\n2, 0, 0, 0, 0, 0]"] ;
382 -> 390 ;
391 [label="gini = 0.0\nsamples = 10\nvalue = [0, 0, 0, 0, 0, 0, 0, 0, 0, 0, 0, 0, 0, 0\n10, 0, 0, 0, 0, 0]"] ;
381 -> 391 ;
392 [label="gini = 0.0\nsamples = 55\nvalue = [0, 0, 0, 0, 0, 0, 0, 0, 0, 0, 0, 0, 0, 0\n55, 0, 0, 0, 0, 0]"] ;
380 -> 392 ;
393 [label="X[10] <= 2.5\ngini = 0.653\nsamples = 7\nvalue = [0, 0, 0, 0, 0, 0, 0, 0, 0, 0, 0, 0, 0, 0\n3, 0, 2, 0, 0, 2]"] ;
379 -> 393 ;
394 [label="gini = 0.0\nsamples = 3\nvalue = [0, 0, 0, 0, 0, 0, 0, 0, 0, 0, 0, 0, 0, 0\n3, 0, 0, 0, 0, 0]"] ;
393 -> 394 ;
395 [label="X[6] <= 13.5\ngini = 0.5\nsamples = 4\nvalue = [0, 0, 0, 0, 0, 0, 0, 0, 0, 0, 0, 0, 0, 0\n0, 0, 2, 0, 0, 2]"] ;
393 -> 395 ;
396 [label="gini = 0.0\nsamples = 2\nvalue = [0, 0, 0, 0, 0, 0, 0, 0, 0, 0, 0, 0, 0, 0\n0, 0, 2, 0, 0, 0]"] ;
395 -> 396 ;
397 [label="gini = 0.0\nsamples = 2\nvalue = [0, 0, 0, 0, 0, 0, 0, 0, 0, 0, 0, 0, 0, 0\n0, 0, 0, 0, 0, 2]"] ;
395 -> 397 ;
398 [label="X[5] <= 8.5\ngini = 0.5\nsamples = 38\nvalue = [0, 0, 0, 0, 0, 0, 0, 0, 0, 0, 0, 0, 0, 0\n0, 0, 0, 0, 19, 19]"] ;
332 -> 398 ;
399 [label="X[8] <= 6.5\ngini = 0.337\nsamples = 14\nvalue = [0, 0, 0, 0, 0, 0, 0, 0, 0, 0, 0, 0, 0, 0\n0, 0, 0, 0, 3, 11]"] ;
398 -> 399 ;
400 [label="X[9] <= 2.5\ngini = 0.444\nsamples = 9\nvalue = [0, 0, 0, 0, 0, 0, 0, 0, 0, 0, 0, 0, 0, 0\n0, 0, 0, 0, 3, 6]"] ;
399 -> 400 ;
401 [label="gini = 0.278\nsamples = 6\nvalue = [0, 0, 0, 0, 0, 0, 0, 0, 0, 0, 0, 0, 0, 0\n0, 0, 0, 0, 1, 5]"] ;
400 -> 401 ;
402 [label="gini = 0.444\nsamples = 3\nvalue = [0, 0, 0, 0, 0, 0, 0, 0, 0, 0, 0, 0, 0, 0\n0, 0, 0, 0, 2, 1]"] ;
400 -> 402 ;
403 [label="gini = 0.0\nsamples = 5\nvalue = [0, 0, 0, 0, 0, 0, 0, 0, 0, 0, 0, 0, 0, 0\n0, 0, 0, 0, 0, 5]"] ;
399 -> 403 ;
404 [label="X[9] <= 2.5\ngini = 0.444\nsamples = 24\nvalue = [0, 0, 0, 0, 0, 0, 0, 0, 0, 0, 0, 0, 0, 0\n0, 0, 0, 0, 16, 8]"] ;
398 -> 404 ;
405 [label="X[5] <= 11.5\ngini = 0.375\nsamples = 16\nvalue = [0, 0, 0, 0, 0, 0, 0, 0, 0, 0, 0, 0, 0, 0\n0, 0, 0, 0, 12, 4]"] ;
404 -> 405 ;
406 [label="X[8] <= 3.5\ngini = 0.32\nsamples = 15\nvalue = [0, 0, 0, 0, 0, 0, 0, 0, 0, 0, 0, 0, 0, 0\n0, 0, 0, 0, 12, 3]"] ;
405 -> 406 ;
407 [label="gini = 0.444\nsamples = 6\nvalue = [0, 0, 0, 0, 0, 0, 0, 0, 0, 0, 0, 0, 0, 0\n0, 0, 0, 0, 4, 2]"] ;
406 -> 407 ;
408 [label="X[5] <= 9.5\ngini = 0.198\nsamples = 9\nvalue = [0, 0, 0, 0, 0, 0, 0, 0, 0, 0, 0, 0, 0, 0\n0, 0, 0, 0, 8, 1]"] ;
406 -> 408 ;
409 [label="X[9] <= 1.5\ngini = 0.375\nsamples = 4\nvalue = [0, 0, 0, 0, 0, 0, 0, 0, 0, 0, 0, 0, 0, 0\n0, 0, 0, 0, 3, 1]"] ;
408 -> 409 ;
410 [label="gini = 0.0\nsamples = 1\nvalue = [0, 0, 0, 0, 0, 0, 0, 0, 0, 0, 0, 0, 0, 0\n0, 0, 0, 0, 1, 0]"] ;
409 -> 410 ;
411 [label="gini = 0.444\nsamples = 3\nvalue = [0, 0, 0, 0, 0, 0, 0, 0, 0, 0, 0, 0, 0, 0\n0, 0, 0, 0, 2, 1]"] ;
409 -> 411 ;
412 [label="gini = 0.0\nsamples = 5\nvalue = [0, 0, 0, 0, 0, 0, 0, 0, 0, 0, 0, 0, 0, 0\n0, 0, 0, 0, 5, 0]"] ;
408 -> 412 ;
413 [label="gini = 0.0\nsamples = 1\nvalue = [0, 0, 0, 0, 0, 0, 0, 0, 0, 0, 0, 0, 0, 0\n0, 0, 0, 0, 0, 1]"] ;
405 -> 413 ;
414 [label="X[5] <= 10.0\ngini = 0.5\nsamples = 8\nvalue = [0, 0, 0, 0, 0, 0, 0, 0, 0, 0, 0, 0, 0, 0\n0, 0, 0, 0, 4, 4]"] ;
404 -> 414 ;
415 [label="gini = 0.0\nsamples = 1\nvalue = [0, 0, 0, 0, 0, 0, 0, 0, 0, 0, 0, 0, 0, 0\n0, 0, 0, 0, 0, 1]"] ;
414 -> 415 ;
416 [label="X[5] <= 11.5\ngini = 0.49\nsamples = 7\nvalue = [0, 0, 0, 0, 0, 0, 0, 0, 0, 0, 0, 0, 0, 0\n0, 0, 0, 0, 4, 3]"] ;
414 -> 416 ;
417 [label="gini = 0.5\nsamples = 6\nvalue = [0, 0, 0, 0, 0, 0, 0, 0, 0, 0, 0, 0, 0, 0\n0, 0, 0, 0, 3, 3]"] ;
416 -> 417 ;
418 [label="gini = 0.0\nsamples = 1\nvalue = [0, 0, 0, 0, 0, 0, 0, 0, 0, 0, 0, 0, 0, 0\n0, 0, 0, 0, 1, 0]"] ;
416 -> 418 ;
419 [label="X[6] <= 13.5\ngini = 0.726\nsamples = 151\nvalue = [0, 0, 0, 0, 0, 0, 0, 5, 0, 0, 0, 0, 18, 0\n23, 0, 17, 11, 7, 70]"] ;
331 -> 419 ;
420 [label="X[7] <= 11.5\ngini = 0.821\nsamples = 64\nvalue = [0, 0, 0, 0, 0, 0, 0, 5, 0, 0, 0, 0, 15, 0\n8, 0, 17, 8, 7, 4]"] ;
419 -> 420 ;
421 [label="X[8] <= 9.5\ngini = 0.715\nsamples = 34\nvalue = [0, 0, 0, 0, 0, 0, 0, 0, 0, 0, 0, 0, 2, 0\n6, 0, 15, 0, 7, 4]"] ;
420 -> 421 ;
422 [label="X[10] <= 2.5\ngini = 0.651\nsamples = 30\nvalue = [0, 0, 0, 0, 0, 0, 0, 0, 0, 0, 0, 0, 2, 0\n6, 0, 15, 0, 7, 0]"] ;
421 -> 422 ;
423 [label="X[5] <= 4.5\ngini = 0.594\nsamples = 16\nvalue = [0, 0, 0, 0, 0, 0, 0, 0, 0, 0, 0, 0, 2, 0\n6, 0, 8, 0, 0, 0]"] ;
422 -> 423 ;
424 [label="gini = 0.0\nsamples = 8\nvalue = [0, 0, 0, 0, 0, 0, 0, 0, 0, 0, 0, 0, 0, 0\n0, 0, 8, 0, 0, 0]"] ;
423 -> 424 ;
425 [label="X[9] <= 2.5\ngini = 0.375\nsamples = 8\nvalue = [0, 0, 0, 0, 0, 0, 0, 0, 0, 0, 0, 0, 2, 0\n6, 0, 0, 0, 0, 0]"] ;
423 -> 425 ;
426 [label="gini = 0.48\nsamples = 5\nvalue = [0, 0, 0, 0, 0, 0, 0, 0, 0, 0, 0, 0, 2, 0\n3, 0, 0, 0, 0, 0]"] ;
425 -> 426 ;
427 [label="gini = 0.0\nsamples = 3\nvalue = [0, 0, 0, 0, 0, 0, 0, 0, 0, 0, 0, 0, 0, 0\n3, 0, 0, 0, 0, 0]"] ;
425 -> 427 ;
428 [label="X[8] <= 8.5\ngini = 0.5\nsamples = 14\nvalue = [0, 0, 0, 0, 0, 0, 0, 0, 0, 0, 0, 0, 0, 0\n0, 0, 7, 0, 7, 0]"] ;
422 -> 428 ;
429 [label="gini = 0.0\nsamples = 7\nvalue = [0, 0, 0, 0, 0, 0, 0, 0, 0, 0, 0, 0, 0, 0\n0, 0, 7, 0, 0, 0]"] ;
428 -> 429 ;
430 [label="gini = 0.0\nsamples = 7\nvalue = [0, 0, 0, 0, 0, 0, 0, 0, 0, 0, 0, 0, 0, 0\n0, 0, 0, 0, 7, 0]"] ;
428 -> 430 ;
431 [label="gini = 0.0\nsamples = 4\nvalue = [0, 0, 0, 0, 0, 0, 0, 0, 0, 0, 0, 0, 0, 0\n0, 0, 0, 0, 0, 4]"] ;
421 -> 431 ;
432 [label="X[8] <= 9.5\ngini = 0.704\nsamples = 30\nvalue = [0, 0, 0, 0, 0, 0, 0, 5, 0, 0, 0, 0, 13, 0\n2, 0, 2, 8, 0, 0]"] ;
420 -> 432 ;
433 [label="X[9] <= 2.5\ngini = 0.664\nsamples = 17\nvalue = [0, 0, 0, 0, 0, 0, 0, 5, 0, 0, 0, 0, 8, 0\n2, 0, 2, 0, 0, 0]"] ;
432 -> 433 ;
434 [label="X[8] <= 8.5\ngini = 0.58\nsamples = 10\nvalue = [0, 0, 0, 0, 0, 0, 0, 5, 0, 0, 0, 0, 4, 0\n0, 0, 1, 0, 0, 0]"] ;
433 -> 434 ;
435 [label="gini = 0.5\nsamples = 8\nvalue = [0, 0, 0, 0, 0, 0, 0, 4, 0, 0, 0, 0, 4, 0\n0, 0, 0, 0, 0, 0]"] ;
434 -> 435 ;
436 [label="gini = 0.5\nsamples = 2\nvalue = [0, 0, 0, 0, 0, 0, 0, 1, 0, 0, 0, 0, 0, 0\n0, 0, 1, 0, 0, 0]"] ;
434 -> 436 ;
437 [label="X[8] <= 8.5\ngini = 0.571\nsamples = 7\nvalue = [0, 0, 0, 0, 0, 0, 0, 0, 0, 0, 0, 0, 4, 0\n2, 0, 1, 0, 0, 0]"] ;
433 -> 437 ;
438 [label="gini = 0.444\nsamples = 3\nvalue = [0, 0, 0, 0, 0, 0, 0, 0, 0, 0, 0, 0, 1, 0\n2, 0, 0, 0, 0, 0]"] ;
437 -> 438 ;
439 [label="gini = 0.375\nsamples = 4\nvalue = [0, 0, 0, 0, 0, 0, 0, 0, 0, 0, 0, 0, 3, 0\n0, 0, 1, 0, 0, 0]"] ;
437 -> 439 ;
440 [label="X[5] <= 2.5\ngini = 0.473\nsamples = 13\nvalue = [0, 0, 0, 0, 0, 0, 0, 0, 0, 0, 0, 0, 5, 0\n0, 0, 0, 8, 0, 0]"] ;
432 -> 440 ;
441 [label="X[9] <= 2.5\ngini = 0.469\nsamples = 8\nvalue = [0, 0, 0, 0, 0, 0, 0, 0, 0, 0, 0, 0, 5, 0\n0, 0, 0, 3, 0, 0]"] ;
440 -> 441 ;
442 [label="gini = 0.444\nsamples = 6\nvalue = [0, 0, 0, 0, 0, 0, 0, 0, 0, 0, 0, 0, 4, 0\n0, 0, 0, 2, 0, 0]"] ;
441 -> 442 ;
443 [label="gini = 0.5\nsamples = 2\nvalue = [0, 0, 0, 0, 0, 0, 0, 0, 0, 0, 0, 0, 1, 0\n0, 0, 0, 1, 0, 0]"] ;
441 -> 443 ;
444 [label="gini = 0.0\nsamples = 5\nvalue = [0, 0, 0, 0, 0, 0, 0, 0, 0, 0, 0, 0, 0, 0\n0, 0, 0, 5, 0, 0]"] ;
440 -> 444 ;
445 [label="X[7] <= 11.5\ngini = 0.392\nsamples = 87\nvalue = [0, 0, 0, 0, 0, 0, 0, 0, 0, 0, 0, 0, 3, 0\n15, 0, 0, 3, 0, 66]"] ;
419 -> 445 ;
446 [label="gini = 0.0\nsamples = 38\nvalue = [0, 0, 0, 0, 0, 0, 0, 0, 0, 0, 0, 0, 0, 0\n0, 0, 0, 0, 0, 38]"] ;
445 -> 446 ;
447 [label="X[8] <= 9.5\ngini = 0.572\nsamples = 49\nvalue = [0, 0, 0, 0, 0, 0, 0, 0, 0, 0, 0, 0, 3, 0\n15, 0, 0, 3, 0, 28]"] ;
445 -> 447 ;
448 [label="X[8] <= 8.5\ngini = 0.449\nsamples = 21\nvalue = [0, 0, 0, 0, 0, 0, 0, 0, 0, 0, 0, 0, 3, 0\n15, 0, 0, 0, 0, 3]"] ;
447 -> 448 ;
449 [label="X[9] <= 1.5\ngini = 0.255\nsamples = 14\nvalue = [0, 0, 0, 0, 0, 0, 0, 0, 0, 0, 0, 0, 1, 0\n12, 0, 0, 0, 0, 1]"] ;
448 -> 449 ;
450 [label="gini = 0.5\nsamples = 2\nvalue = [0, 0, 0, 0, 0, 0, 0, 0, 0, 0, 0, 0, 1, 0\n1, 0, 0, 0, 0, 0]"] ;
449 -> 450 ;
451 [label="X[7] <= 12.5\ngini = 0.153\nsamples = 12\nvalue = [0, 0, 0, 0, 0, 0, 0, 0, 0, 0, 0, 0, 0, 0\n11, 0, 0, 0, 0, 1]"] ;
449 -> 451 ;
452 [label="gini = 0.0\nsamples = 4\nvalue = [0, 0, 0, 0, 0, 0, 0, 0, 0, 0, 0, 0, 0, 0\n4, 0, 0, 0, 0, 0]"] ;
451 -> 452 ;
453 [label="X[9] <= 2.5\ngini = 0.219\nsamples = 8\nvalue = [0, 0, 0, 0, 0, 0, 0, 0, 0, 0, 0, 0, 0, 0\n7, 0, 0, 0, 0, 1]"] ;
451 -> 453 ;
454 [label="gini = 0.278\nsamples = 6\nvalue = [0, 0, 0, 0, 0, 0, 0, 0, 0, 0, 0, 0, 0, 0\n5, 0, 0, 0, 0, 1]"] ;
453 -> 454 ;
455 [label="gini = 0.0\nsamples = 2\nvalue = [0, 0, 0, 0, 0, 0, 0, 0, 0, 0, 0, 0, 0, 0\n2, 0, 0, 0, 0, 0]"] ;
453 -> 455 ;
456 [label="X[9] <= 2.5\ngini = 0.653\nsamples = 7\nvalue = [0, 0, 0, 0, 0, 0, 0, 0, 0, 0, 0, 0, 2, 0\n3, 0, 0, 0, 0, 2]"] ;
448 -> 456 ;
457 [label="X[7] <= 12.5\ngini = 0.5\nsamples = 4\nvalue = [0, 0, 0, 0, 0, 0, 0, 0, 0, 0, 0, 0, 2, 0\n0, 0, 0, 0, 0, 2]"] ;
456 -> 457 ;
458 [label="gini = 0.0\nsamples = 2\nvalue = [0, 0, 0, 0, 0, 0, 0, 0, 0, 0, 0, 0, 2, 0\n0, 0, 0, 0, 0, 0]"] ;
457 -> 458 ;
459 [label="gini = 0.0\nsamples = 2\nvalue = [0, 0, 0, 0, 0, 0, 0, 0, 0, 0, 0, 0, 0, 0\n0, 0, 0, 0, 0, 2]"] ;
457 -> 459 ;
460 [label="gini = 0.0\nsamples = 3\nvalue = [0, 0, 0, 0, 0, 0, 0, 0, 0, 0, 0, 0, 0, 0\n3, 0, 0, 0, 0, 0]"] ;
456 -> 460 ;
461 [label="X[8] <= 11.5\ngini = 0.191\nsamples = 28\nvalue = [0, 0, 0, 0, 0, 0, 0, 0, 0, 0, 0, 0, 0, 0\n0, 0, 0, 3, 0, 25]"] ;
447 -> 461 ;
462 [label="gini = 0.0\nsamples = 19\nvalue = [0, 0, 0, 0, 0, 0, 0, 0, 0, 0, 0, 0, 0, 0\n0, 0, 0, 0, 0, 19]"] ;
461 -> 462 ;
463 [label="X[9] <= 2.5\ngini = 0.444\nsamples = 9\nvalue = [0, 0, 0, 0, 0, 0, 0, 0, 0, 0, 0, 0, 0, 0\n0, 0, 0, 3, 0, 6]"] ;
461 -> 463 ;
464 [label="gini = 0.32\nsamples = 5\nvalue = [0, 0, 0, 0, 0, 0, 0, 0, 0, 0, 0, 0, 0, 0\n0, 0, 0, 1, 0, 4]"] ;
463 -> 464 ;
465 [label="gini = 0.5\nsamples = 4\nvalue = [0, 0, 0, 0, 0, 0, 0, 0, 0, 0, 0, 0, 0, 0\n0, 0, 0, 2, 0, 2]"] ;
463 -> 465 ;
466 [label="X[5] <= 4.5\ngini = 0.816\nsamples = 177\nvalue = [22, 0, 0, 0, 0, 0, 0, 0, 9, 0, 26, 0, 49, 0\n0, 39, 0, 23, 9, 0]"] ;
294 -> 466 ;
467 [label="X[7] <= 10.5\ngini = 0.653\nsamples = 94\nvalue = [5, 0, 0, 0, 0, 0, 0, 0, 4, 0, 3, 0, 49, 0\n0, 1, 0, 23, 9, 0]"] ;
466 -> 467 ;
468 [label="X[6] <= 11.5\ngini = 0.725\nsamples = 26\nvalue = [5, 0, 0, 0, 0, 0, 0, 0, 4, 0, 0, 0, 8, 0\n0, 0, 0, 0, 9, 0]"] ;
467 -> 468 ;
469 [label="X[5] <= 1.5\ngini = 0.637\nsamples = 17\nvalue = [5, 0, 0, 0, 0, 0, 0, 0, 4, 0, 0, 0, 8, 0\n0, 0, 0, 0, 0, 0]"] ;
468 -> 469 ;
470 [label="gini = 0.0\nsamples = 7\nvalue = [0, 0, 0, 0, 0, 0, 0, 0, 0, 0, 0, 0, 7, 0\n0, 0, 0, 0, 0, 0]"] ;
469 -> 470 ;
471 [label="X[9] <= 2.5\ngini = 0.58\nsamples = 10\nvalue = [5, 0, 0, 0, 0, 0, 0, 0, 4, 0, 0, 0, 1, 0\n0, 0, 0, 0, 0, 0]"] ;
469 -> 471 ;
472 [label="X[5] <= 2.5\ngini = 0.5\nsamples = 6\nvalue = [1, 0, 0, 0, 0, 0, 0, 0, 4, 0, 0, 0, 1, 0\n0, 0, 0, 0, 0, 0]"] ;
471 -> 472 ;
473 [label="gini = 0.0\nsamples = 1\nvalue = [0, 0, 0, 0, 0, 0, 0, 0, 0, 0, 0, 0, 1, 0\n0, 0, 0, 0, 0, 0]"] ;
472 -> 473 ;
474 [label="X[9] <= 1.5\ngini = 0.32\nsamples = 5\nvalue = [1, 0, 0, 0, 0, 0, 0, 0, 4, 0, 0, 0, 0, 0\n0, 0, 0, 0, 0, 0]"] ;
472 -> 474 ;
475 [label="gini = 0.0\nsamples = 1\nvalue = [1, 0, 0, 0, 0, 0, 0, 0, 0, 0, 0, 0, 0, 0\n0, 0, 0, 0, 0, 0]"] ;
474 -> 475 ;
476 [label="gini = 0.0\nsamples = 4\nvalue = [0, 0, 0, 0, 0, 0, 0, 0, 4, 0, 0, 0, 0, 0\n0, 0, 0, 0, 0, 0]"] ;
474 -> 476 ;
477 [label="gini = 0.0\nsamples = 4\nvalue = [4, 0, 0, 0, 0, 0, 0, 0, 0, 0, 0, 0, 0, 0\n0, 0, 0, 0, 0, 0]"] ;
471 -> 477 ;
478 [label="gini = 0.0\nsamples = 9\nvalue = [0, 0, 0, 0, 0, 0, 0, 0, 0, 0, 0, 0, 0, 0\n0, 0, 0, 0, 9, 0]"] ;
468 -> 478 ;
479 [label="X[10] <= 0.5\ngini = 0.52\nsamples = 68\nvalue = [0, 0, 0, 0, 0, 0, 0, 0, 0, 0, 3, 0, 41, 0\n0, 1, 0, 23, 0, 0]"] ;
467 -> 479 ;
480 [label="X[8] <= 9.5\ngini = 0.573\nsamples = 50\nvalue = [0, 0, 0, 0, 0, 0, 0, 0, 0, 0, 3, 0, 23, 0\n0, 1, 0, 23, 0, 0]"] ;
479 -> 480 ;
481 [label="X[8] <= 7.5\ngini = 0.32\nsamples = 15\nvalue = [0, 0, 0, 0, 0, 0, 0, 0, 0, 0, 3, 0, 12, 0\n0, 0, 0, 0, 0, 0]"] ;
480 -> 481 ;
482 [label="gini = 0.0\nsamples = 3\nvalue = [0, 0, 0, 0, 0, 0, 0, 0, 0, 0, 3, 0, 0, 0\n0, 0, 0, 0, 0, 0]"] ;
481 -> 482 ;
483 [label="gini = 0.0\nsamples = 12\nvalue = [0, 0, 0, 0, 0, 0, 0, 0, 0, 0, 0, 0, 12, 0\n0, 0, 0, 0, 0, 0]"] ;
481 -> 483 ;
484 [label="X[8] <= 10.5\ngini = 0.469\nsamples = 35\nvalue = [0, 0, 0, 0, 0, 0, 0, 0, 0, 0, 0, 0, 11, 0\n0, 1, 0, 23, 0, 0]"] ;
480 -> 484 ;
485 [label="gini = 0.0\nsamples = 12\nvalue = [0, 0, 0, 0, 0, 0, 0, 0, 0, 0, 0, 0, 0, 0\n0, 0, 0, 12, 0, 0]"] ;
484 -> 485 ;
486 [label="X[6] <= 12.5\ngini = 0.541\nsamples = 23\nvalue = [0, 0, 0, 0, 0, 0, 0, 0, 0, 0, 0, 0, 11, 0\n0, 1, 0, 11, 0, 0]"] ;
484 -> 486 ;
487 [label="X[6] <= 11.5\ngini = 0.278\nsamples = 6\nvalue = [0, 0, 0, 0, 0, 0, 0, 0, 0, 0, 0, 0, 1, 0\n0, 0, 0, 5, 0, 0]"] ;
486 -> 487 ;
488 [label="gini = 0.0\nsamples = 1\nvalue = [0, 0, 0, 0, 0, 0, 0, 0, 0, 0, 0, 0, 1, 0\n0, 0, 0, 0, 0, 0]"] ;
487 -> 488 ;
489 [label="gini = 0.0\nsamples = 5\nvalue = [0, 0, 0, 0, 0, 0, 0, 0, 0, 0, 0, 0, 0, 0\n0, 0, 0, 5, 0, 0]"] ;
487 -> 489 ;
490 [label="X[5] <= 2.5\ngini = 0.526\nsamples = 17\nvalue = [0, 0, 0, 0, 0, 0, 0, 0, 0, 0, 0, 0, 10, 0\n0, 1, 0, 6, 0, 0]"] ;
486 -> 490 ;
491 [label="X[8] <= 13.5\ngini = 0.439\nsamples = 14\nvalue = [0, 0, 0, 0, 0, 0, 0, 0, 0, 0, 0, 0, 10, 0\n0, 1, 0, 3, 0, 0]"] ;
490 -> 491 ;
492 [label="X[8] <= 12.5\ngini = 0.355\nsamples = 13\nvalue = [0, 0, 0, 0, 0, 0, 0, 0, 0, 0, 0, 0, 10, 0\n0, 0, 0, 3, 0, 0]"] ;
491 -> 492 ;
493 [label="X[8] <= 11.5\ngini = 0.198\nsamples = 9\nvalue = [0, 0, 0, 0, 0, 0, 0, 0, 0, 0, 0, 0, 8, 0\n0, 0, 0, 1, 0, 0]"] ;
492 -> 493 ;
494 [label="X[9] <= 2.5\ngini = 0.32\nsamples = 5\nvalue = [0, 0, 0, 0, 0, 0, 0, 0, 0, 0, 0, 0, 4, 0\n0, 0, 0, 1, 0, 0]"] ;
493 -> 494 ;
495 [label="gini = 0.375\nsamples = 4\nvalue = [0, 0, 0, 0, 0, 0, 0, 0, 0, 0, 0, 0, 3, 0\n0, 0, 0, 1, 0, 0]"] ;
494 -> 495 ;
496 [label="gini = 0.0\nsamples = 1\nvalue = [0, 0, 0, 0, 0, 0, 0, 0, 0, 0, 0, 0, 1, 0\n0, 0, 0, 0, 0, 0]"] ;
494 -> 496 ;
497 [label="gini = 0.0\nsamples = 4\nvalue = [0, 0, 0, 0, 0, 0, 0, 0, 0, 0, 0, 0, 4, 0\n0, 0, 0, 0, 0, 0]"] ;
493 -> 497 ;
498 [label="X[6] <= 13.5\ngini = 0.5\nsamples = 4\nvalue = [0, 0, 0, 0, 0, 0, 0, 0, 0, 0, 0, 0, 2, 0\n0, 0, 0, 2, 0, 0]"] ;
492 -> 498 ;
499 [label="gini = 0.0\nsamples = 2\nvalue = [0, 0, 0, 0, 0, 0, 0, 0, 0, 0, 0, 0, 2, 0\n0, 0, 0, 0, 0, 0]"] ;
498 -> 499 ;
500 [label="gini = 0.0\nsamples = 2\nvalue = [0, 0, 0, 0, 0, 0, 0, 0, 0, 0, 0, 0, 0, 0\n0, 0, 0, 2, 0, 0]"] ;
498 -> 500 ;
501 [label="gini = 0.0\nsamples = 1\nvalue = [0, 0, 0, 0, 0, 0, 0, 0, 0, 0, 0, 0, 0, 0\n0, 1, 0, 0, 0, 0]"] ;
491 -> 501 ;
502 [label="gini = 0.0\nsamples = 3\nvalue = [0, 0, 0, 0, 0, 0, 0, 0, 0, 0, 0, 0, 0, 0\n0, 0, 0, 3, 0, 0]"] ;
490 -> 502 ;
503 [label="gini = 0.0\nsamples = 18\nvalue = [0, 0, 0, 0, 0, 0, 0, 0, 0, 0, 0, 0, 18, 0\n0, 0, 0, 0, 0, 0]"] ;
479 -> 503 ;
504 [label="X[7] <= 12.5\ngini = 0.668\nsamples = 83\nvalue = [17, 0, 0, 0, 0, 0, 0, 0, 5, 0, 23, 0, 0, 0\n0, 38, 0, 0, 0, 0]"] ;
466 -> 504 ;
505 [label="X[9] <= 2.5\ngini = 0.584\nsamples = 45\nvalue = [17, 0, 0, 0, 0, 0, 0, 0, 5, 0, 23, 0, 0, 0\n0, 0, 0, 0, 0, 0]"] ;
504 -> 505 ;
506 [label="X[6] <= 10.5\ngini = 0.414\nsamples = 31\nvalue = [3, 0, 0, 0, 0, 0, 0, 0, 5, 0, 23, 0, 0, 0\n0, 0, 0, 0, 0, 0]"] ;
505 -> 506 ;
507 [label="X[9] <= 1.5\ngini = 0.278\nsamples = 6\nvalue = [1, 0, 0, 0, 0, 0, 0, 0, 5, 0, 0, 0, 0, 0\n0, 0, 0, 0, 0, 0]"] ;
506 -> 507 ;
508 [label="gini = 0.0\nsamples = 1\nvalue = [1, 0, 0, 0, 0, 0, 0, 0, 0, 0, 0, 0, 0, 0\n0, 0, 0, 0, 0, 0]"] ;
507 -> 508 ;
509 [label="gini = 0.0\nsamples = 5\nvalue = [0, 0, 0, 0, 0, 0, 0, 0, 5, 0, 0, 0, 0, 0\n0, 0, 0, 0, 0, 0]"] ;
507 -> 509 ;
510 [label="X[9] <= 1.5\ngini = 0.147\nsamples = 25\nvalue = [2, 0, 0, 0, 0, 0, 0, 0, 0, 0, 23, 0, 0, 0\n0, 0, 0, 0, 0, 0]"] ;
506 -> 510 ;
511 [label="gini = 0.0\nsamples = 2\nvalue = [2, 0, 0, 0, 0, 0, 0, 0, 0, 0, 0, 0, 0, 0\n0, 0, 0, 0, 0, 0]"] ;
510 -> 511 ;
512 [label="gini = 0.0\nsamples = 23\nvalue = [0, 0, 0, 0, 0, 0, 0, 0, 0, 0, 23, 0, 0, 0\n0, 0, 0, 0, 0, 0]"] ;
510 -> 512 ;
513 [label="gini = 0.0\nsamples = 14\nvalue = [14, 0, 0, 0, 0, 0, 0, 0, 0, 0, 0, 0, 0, 0\n0, 0, 0, 0, 0, 0]"] ;
505 -> 513 ;
514 [label="gini = 0.0\nsamples = 38\nvalue = [0, 0, 0, 0, 0, 0, 0, 0, 0, 0, 0, 0, 0, 0\n0, 38, 0, 0, 0, 0]"] ;
504 -> 514 ;
515 [label="X[7] <= 8.5\ngini = 0.772\nsamples = 14652\nvalue = [0, 0, 0, 0, 0, 0, 0, 0, 0, 0, 6, 28, 278\n424, 850, 1744, 5364, 296, 3008, 2654]"] ;
3 -> 515 ;
516 [label="X[6] <= 10.5\ngini = 0.674\nsamples = 8108\nvalue = [0, 0, 0, 0, 0, 0, 0, 0, 0, 0, 6, 28, 148\n384, 425, 1198, 3986, 0, 1933, 0]"] ;
515 -> 516 ;
517 [label="X[7] <= 6.5\ngini = 0.6\nsamples = 4164\nvalue = [0, 0, 0, 0, 0, 0, 0, 0, 0, 0, 6, 28, 142\n299, 244, 956, 2417, 0, 72, 0]"] ;
516 -> 517 ;
518 [label="X[6] <= 5.5\ngini = 0.463\nsamples = 2762\nvalue = [0, 0, 0, 0, 0, 0, 0, 0, 0, 0, 0, 0, 21, 84\n39, 695, 1898, 0, 25, 0]"] ;
517 -> 518 ;
519 [label="X[8] <= 4.5\ngini = 0.01\nsamples = 394\nvalue = [0, 0, 0, 0, 0, 0, 0, 0, 0, 0, 0, 0, 0, 0\n0, 2, 392, 0, 0, 0]"] ;
518 -> 519 ;
520 [label="gini = 0.0\nsamples = 389\nvalue = [0, 0, 0, 0, 0, 0, 0, 0, 0, 0, 0, 0, 0, 0\n0, 0, 389, 0, 0, 0]"] ;
519 -> 520 ;
521 [label="X[9] <= 1.5\ngini = 0.48\nsamples = 5\nvalue = [0, 0, 0, 0, 0, 0, 0, 0, 0, 0, 0, 0, 0, 0\n0, 2, 3, 0, 0, 0]"] ;
519 -> 521 ;
522 [label="gini = 0.0\nsamples = 1\nvalue = [0, 0, 0, 0, 0, 0, 0, 0, 0, 0, 0, 0, 0, 0\n0, 1, 0, 0, 0, 0]"] ;
521 -> 522 ;
523 [label="X[9] <= 2.5\ngini = 0.375\nsamples = 4\nvalue = [0, 0, 0, 0, 0, 0, 0, 0, 0, 0, 0, 0, 0, 0\n0, 1, 3, 0, 0, 0]"] ;
521 -> 523 ;
524 [label="gini = 0.0\nsamples = 3\nvalue = [0, 0, 0, 0, 0, 0, 0, 0, 0, 0, 0, 0, 0, 0\n0, 0, 3, 0, 0, 0]"] ;
523 -> 524 ;
525 [label="gini = 0.0\nsamples = 1\nvalue = [0, 0, 0, 0, 0, 0, 0, 0, 0, 0, 0, 0, 0, 0\n0, 1, 0, 0, 0, 0]"] ;
523 -> 525 ;
526 [label="X[6] <= 8.5\ngini = 0.508\nsamples = 2368\nvalue = [0, 0, 0, 0, 0, 0, 0, 0, 0, 0, 0, 0, 21, 84\n39, 693, 1506, 0, 25, 0]"] ;
518 -> 526 ;
527 [label="X[6] <= 7.5\ngini = 0.562\nsamples = 1400\nvalue = [0, 0, 0, 0, 0, 0, 0, 0, 0, 0, 0, 0, 13, 67\n39, 515, 766, 0, 0, 0]"] ;
526 -> 527 ;
528 [label="X[6] <= 6.5\ngini = 0.498\nsamples = 945\nvalue = [0, 0, 0, 0, 0, 0, 0, 0, 0, 0, 0, 0, 0, 10\n0, 392, 543, 0, 0, 0]"] ;
527 -> 528 ;
529 [label="X[7] <= 4.5\ngini = 0.434\nsamples = 437\nvalue = [0, 0, 0, 0, 0, 0, 0, 0, 0, 0, 0, 0, 0, 0\n0, 139, 298, 0, 0, 0]"] ;
528 -> 529 ;
530 [label="X[2] <= 0.5\ngini = 0.244\nsamples = 197\nvalue = [0, 0, 0, 0, 0, 0, 0, 0, 0, 0, 0, 0, 0, 0\n0, 28, 169, 0, 0, 0]"] ;
529 -> 530 ;
531 [label="gini = 0.0\nsamples = 125\nvalue = [0, 0, 0, 0, 0, 0, 0, 0, 0, 0, 0, 0, 0, 0\n0, 0, 125, 0, 0, 0]"] ;
530 -> 531 ;
532 [label="X[5] <= 3.5\ngini = 0.475\nsamples = 72\nvalue = [0, 0, 0, 0, 0, 0, 0, 0, 0, 0, 0, 0, 0, 0\n0, 28, 44, 0, 0, 0]"] ;
530 -> 532 ;
533 [label="X[9] <= 2.5\ngini = 0.47\nsamples = 45\nvalue = [0, 0, 0, 0, 0, 0, 0, 0, 0, 0, 0, 0, 0, 0\n0, 28, 17, 0, 0, 0]"] ;
532 -> 533 ;
534 [label="X[8] <= 3.5\ngini = 0.489\nsamples = 33\nvalue = [0, 0, 0, 0, 0, 0, 0, 0, 0, 0, 0, 0, 0, 0\n0, 19, 14, 0, 0, 0]"] ;
533 -> 534 ;
535 [label="X[9] <= 1.5\ngini = 0.5\nsamples = 18\nvalue = [0, 0, 0, 0, 0, 0, 0, 0, 0, 0, 0, 0, 0, 0\n0, 9, 9, 0, 0, 0]"] ;
534 -> 535 ;
536 [label="gini = 0.0\nsamples = 2\nvalue = [0, 0, 0, 0, 0, 0, 0, 0, 0, 0, 0, 0, 0, 0\n0, 2, 0, 0, 0, 0]"] ;
535 -> 536 ;
537 [label="gini = 0.492\nsamples = 16\nvalue = [0, 0, 0, 0, 0, 0, 0, 0, 0, 0, 0, 0, 0, 0\n0, 7, 9, 0, 0, 0]"] ;
535 -> 537 ;
538 [label="X[9] <= 1.5\ngini = 0.444\nsamples = 15\nvalue = [0, 0, 0, 0, 0, 0, 0, 0, 0, 0, 0, 0, 0, 0\n0, 10, 5, 0, 0, 0]"] ;
534 -> 538 ;
539 [label="gini = 0.0\nsamples = 1\nvalue = [0, 0, 0, 0, 0, 0, 0, 0, 0, 0, 0, 0, 0, 0\n0, 0, 1, 0, 0, 0]"] ;
538 -> 539 ;
540 [label="gini = 0.408\nsamples = 14\nvalue = [0, 0, 0, 0, 0, 0, 0, 0, 0, 0, 0, 0, 0, 0\n0, 10, 4, 0, 0, 0]"] ;
538 -> 540 ;
541 [label="X[10] <= 2.5\ngini = 0.375\nsamples = 12\nvalue = [0, 0, 0, 0, 0, 0, 0, 0, 0, 0, 0, 0, 0, 0\n0, 9, 3, 0, 0, 0]"] ;
533 -> 541 ;
542 [label="gini = 0.49\nsamples = 7\nvalue = [0, 0, 0, 0, 0, 0, 0, 0, 0, 0, 0, 0, 0, 0\n0, 4, 3, 0, 0, 0]"] ;
541 -> 542 ;
543 [label="gini = 0.0\nsamples = 5\nvalue = [0, 0, 0, 0, 0, 0, 0, 0, 0, 0, 0, 0, 0, 0\n0, 5, 0, 0, 0, 0]"] ;
541 -> 543 ;
544 [label="gini = 0.0\nsamples = 27\nvalue = [0, 0, 0, 0, 0, 0, 0, 0, 0, 0, 0, 0, 0, 0\n0, 0, 27, 0, 0, 0]"] ;
532 -> 544 ;
545 [label="X[9] <= 2.5\ngini = 0.497\nsamples = 240\nvalue = [0, 0, 0, 0, 0, 0, 0, 0, 0, 0, 0, 0, 0, 0\n0, 111, 129, 0, 0, 0]"] ;
529 -> 545 ;
546 [label="X[5] <= 2.5\ngini = 0.49\nsamples = 168\nvalue = [0, 0, 0, 0, 0, 0, 0, 0, 0, 0, 0, 0, 0, 0\n0, 72, 96, 0, 0, 0]"] ;
545 -> 546 ;
547 [label="X[9] <= 1.5\ngini = 0.489\nsamples = 82\nvalue = [0, 0, 0, 0, 0, 0, 0, 0, 0, 0, 0, 0, 0, 0\n0, 47, 35, 0, 0, 0]"] ;
546 -> 547 ;
548 [label="X[10] <= 0.5\ngini = 0.48\nsamples = 10\nvalue = [0, 0, 0, 0, 0, 0, 0, 0, 0, 0, 0, 0, 0, 0\n0, 4, 6, 0, 0, 0]"] ;
547 -> 548 ;
549 [label="X[5] <= 1.5\ngini = 0.375\nsamples = 4\nvalue = [0, 0, 0, 0, 0, 0, 0, 0, 0, 0, 0, 0, 0, 0\n0, 3, 1, 0, 0, 0]"] ;
548 -> 549 ;
550 [label="gini = 0.0\nsamples = 1\nvalue = [0, 0, 0, 0, 0, 0, 0, 0, 0, 0, 0, 0, 0, 0\n0, 1, 0, 0, 0, 0]"] ;
549 -> 550 ;
551 [label="gini = 0.444\nsamples = 3\nvalue = [0, 0, 0, 0, 0, 0, 0, 0, 0, 0, 0, 0, 0, 0\n0, 2, 1, 0, 0, 0]"] ;
549 -> 551 ;
552 [label="X[8] <= 4.5\ngini = 0.278\nsamples = 6\nvalue = [0, 0, 0, 0, 0, 0, 0, 0, 0, 0, 0, 0, 0, 0\n0, 1, 5, 0, 0, 0]"] ;
548 -> 552 ;
553 [label="gini = 0.444\nsamples = 3\nvalue = [0, 0, 0, 0, 0, 0, 0, 0, 0, 0, 0, 0, 0, 0\n0, 1, 2, 0, 0, 0]"] ;
552 -> 553 ;
554 [label="gini = 0.0\nsamples = 3\nvalue = [0, 0, 0, 0, 0, 0, 0, 0, 0, 0, 0, 0, 0, 0\n0, 0, 3, 0, 0, 0]"] ;
552 -> 554 ;
555 [label="X[7] <= 5.5\ngini = 0.481\nsamples = 72\nvalue = [0, 0, 0, 0, 0, 0, 0, 0, 0, 0, 0, 0, 0, 0\n0, 43, 29, 0, 0, 0]"] ;
547 -> 555 ;
556 [label="X[5] <= 1.5\ngini = 0.454\nsamples = 46\nvalue = [0, 0, 0, 0, 0, 0, 0, 0, 0, 0, 0, 0, 0, 0\n0, 30, 16, 0, 0, 0]"] ;
555 -> 556 ;
557 [label="gini = 0.465\nsamples = 19\nvalue = [0, 0, 0, 0, 0, 0, 0, 0, 0, 0, 0, 0, 0, 0\n0, 12, 7, 0, 0, 0]"] ;
556 -> 557 ;
558 [label="gini = 0.444\nsamples = 27\nvalue = [0, 0, 0, 0, 0, 0, 0, 0, 0, 0, 0, 0, 0, 0\n0, 18, 9, 0, 0, 0]"] ;
556 -> 558 ;
559 [label="X[5] <= 1.5\ngini = 0.5\nsamples = 26\nvalue = [0, 0, 0, 0, 0, 0, 0, 0, 0, 0, 0, 0, 0, 0\n0, 13, 13, 0, 0, 0]"] ;
555 -> 559 ;
560 [label="X[8] <= 5.5\ngini = 0.498\nsamples = 15\nvalue = [0, 0, 0, 0, 0, 0, 0, 0, 0, 0, 0, 0, 0, 0\n0, 8, 7, 0, 0, 0]"] ;
559 -> 560 ;
561 [label="gini = 0.497\nsamples = 13\nvalue = [0, 0, 0, 0, 0, 0, 0, 0, 0, 0, 0, 0, 0, 0\n0, 7, 6, 0, 0, 0]"] ;
560 -> 561 ;
562 [label="gini = 0.5\nsamples = 2\nvalue = [0, 0, 0, 0, 0, 0, 0, 0, 0, 0, 0, 0, 0, 0\n0, 1, 1, 0, 0, 0]"] ;
560 -> 562 ;
563 [label="gini = 0.496\nsamples = 11\nvalue = [0, 0, 0, 0, 0, 0, 0, 0, 0, 0, 0, 0, 0, 0\n0, 5, 6, 0, 0, 0]"] ;
559 -> 563 ;
564 [label="X[9] <= 1.5\ngini = 0.412\nsamples = 86\nvalue = [0, 0, 0, 0, 0, 0, 0, 0, 0, 0, 0, 0, 0, 0\n0, 25, 61, 0, 0, 0]"] ;
546 -> 564 ;
565 [label="X[5] <= 3.5\ngini = 0.469\nsamples = 8\nvalue = [0, 0, 0, 0, 0, 0, 0, 0, 0, 0, 0, 0, 0, 0\n0, 5, 3, 0, 0, 0]"] ;
564 -> 565 ;
566 [label="gini = 0.0\nsamples = 3\nvalue = [0, 0, 0, 0, 0, 0, 0, 0, 0, 0, 0, 0, 0, 0\n0, 3, 0, 0, 0, 0]"] ;
565 -> 566 ;
567 [label="X[10] <= 0.5\ngini = 0.48\nsamples = 5\nvalue = [0, 0, 0, 0, 0, 0, 0, 0, 0, 0, 0, 0, 0, 0\n0, 2, 3, 0, 0, 0]"] ;
565 -> 567 ;
568 [label="gini = 0.5\nsamples = 2\nvalue = [0, 0, 0, 0, 0, 0, 0, 0, 0, 0, 0, 0, 0, 0\n0, 1, 1, 0, 0, 0]"] ;
567 -> 568 ;
569 [label="gini = 0.444\nsamples = 3\nvalue = [0, 0, 0, 0, 0, 0, 0, 0, 0, 0, 0, 0, 0, 0\n0, 1, 2, 0, 0, 0]"] ;
567 -> 569 ;
570 [label="X[5] <= 3.5\ngini = 0.381\nsamples = 78\nvalue = [0, 0, 0, 0, 0, 0, 0, 0, 0, 0, 0, 0, 0, 0\n0, 20, 58, 0, 0, 0]"] ;
564 -> 570 ;
571 [label="X[10] <= 0.5\ngini = 0.266\nsamples = 38\nvalue = [0, 0, 0, 0, 0, 0, 0, 0, 0, 0, 0, 0, 0, 0\n0, 6, 32, 0, 0, 0]"] ;
570 -> 571 ;
572 [label="gini = 0.231\nsamples = 15\nvalue = [0, 0, 0, 0, 0, 0, 0, 0, 0, 0, 0, 0, 0, 0\n0, 2, 13, 0, 0, 0]"] ;
571 -> 572 ;
573 [label="gini = 0.287\nsamples = 23\nvalue = [0, 0, 0, 0, 0, 0, 0, 0, 0, 0, 0, 0, 0, 0\n0, 4, 19, 0, 0, 0]"] ;
571 -> 573 ;
574 [label="X[2] <= 0.5\ngini = 0.455\nsamples = 40\nvalue = [0, 0, 0, 0, 0, 0, 0, 0, 0, 0, 0, 0, 0, 0\n0, 14, 26, 0, 0, 0]"] ;
570 -> 574 ;
575 [label="gini = 0.444\nsamples = 24\nvalue = [0, 0, 0, 0, 0, 0, 0, 0, 0, 0, 0, 0, 0, 0\n0, 8, 16, 0, 0, 0]"] ;
574 -> 575 ;
576 [label="gini = 0.469\nsamples = 16\nvalue = [0, 0, 0, 0, 0, 0, 0, 0, 0, 0, 0, 0, 0, 0\n0, 6, 10, 0, 0, 0]"] ;
574 -> 576 ;
577 [label="X[5] <= 2.5\ngini = 0.497\nsamples = 72\nvalue = [0, 0, 0, 0, 0, 0, 0, 0, 0, 0, 0, 0, 0, 0\n0, 39, 33, 0, 0, 0]"] ;
545 -> 577 ;
578 [label="X[10] <= 0.5\ngini = 0.463\nsamples = 33\nvalue = [0, 0, 0, 0, 0, 0, 0, 0, 0, 0, 0, 0, 0, 0\n0, 12, 21, 0, 0, 0]"] ;
577 -> 578 ;
579 [label="X[8] <= 4.5\ngini = 0.298\nsamples = 11\nvalue = [0, 0, 0, 0, 0, 0, 0, 0, 0, 0, 0, 0, 0, 0\n0, 2, 9, 0, 0, 0]"] ;
578 -> 579 ;
580 [label="gini = 0.444\nsamples = 3\nvalue = [0, 0, 0, 0, 0, 0, 0, 0, 0, 0, 0, 0, 0, 0\n0, 1, 2, 0, 0, 0]"] ;
579 -> 580 ;
581 [label="X[5] <= 0.5\ngini = 0.219\nsamples = 8\nvalue = [0, 0, 0, 0, 0, 0, 0, 0, 0, 0, 0, 0, 0, 0\n0, 1, 7, 0, 0, 0]"] ;
579 -> 581 ;
582 [label="gini = 0.32\nsamples = 5\nvalue = [0, 0, 0, 0, 0, 0, 0, 0, 0, 0, 0, 0, 0, 0\n0, 1, 4, 0, 0, 0]"] ;
581 -> 582 ;
583 [label="gini = 0.0\nsamples = 3\nvalue = [0, 0, 0, 0, 0, 0, 0, 0, 0, 0, 0, 0, 0, 0\n0, 0, 3, 0, 0, 0]"] ;
581 -> 583 ;
584 [label="X[5] <= 1.5\ngini = 0.496\nsamples = 22\nvalue = [0, 0, 0, 0, 0, 0, 0, 0, 0, 0, 0, 0, 0, 0\n0, 10, 12, 0, 0, 0]"] ;
578 -> 584 ;
585 [label="gini = 0.444\nsamples = 9\nvalue = [0, 0, 0, 0, 0, 0, 0, 0, 0, 0, 0, 0, 0, 0\n0, 6, 3, 0, 0, 0]"] ;
584 -> 585 ;
586 [label="gini = 0.426\nsamples = 13\nvalue = [0, 0, 0, 0, 0, 0, 0, 0, 0, 0, 0, 0, 0, 0\n0, 4, 9, 0, 0, 0]"] ;
584 -> 586 ;
587 [label="X[7] <= 5.5\ngini = 0.426\nsamples = 39\nvalue = [0, 0, 0, 0, 0, 0, 0, 0, 0, 0, 0, 0, 0, 0\n0, 27, 12, 0, 0, 0]"] ;
577 -> 587 ;
588 [label="X[8] <= 2.5\ngini = 0.437\nsamples = 31\nvalue = [0, 0, 0, 0, 0, 0, 0, 0, 0, 0, 0, 0, 0, 0\n0, 21, 10, 0, 0, 0]"] ;
587 -> 588 ;
589 [label="gini = 0.408\nsamples = 14\nvalue = [0, 0, 0, 0, 0, 0, 0, 0, 0, 0, 0, 0, 0, 0\n0, 10, 4, 0, 0, 0]"] ;
588 -> 589 ;
590 [label="gini = 0.457\nsamples = 17\nvalue = [0, 0, 0, 0, 0, 0, 0, 0, 0, 0, 0, 0, 0, 0\n0, 11, 6, 0, 0, 0]"] ;
588 -> 590 ;
591 [label="X[8] <= 2.5\ngini = 0.375\nsamples = 8\nvalue = [0, 0, 0, 0, 0, 0, 0, 0, 0, 0, 0, 0, 0, 0\n0, 6, 2, 0, 0, 0]"] ;
587 -> 591 ;
592 [label="gini = 0.48\nsamples = 5\nvalue = [0, 0, 0, 0, 0, 0, 0, 0, 0, 0, 0, 0, 0, 0\n0, 3, 2, 0, 0, 0]"] ;
591 -> 592 ;
593 [label="gini = 0.0\nsamples = 3\nvalue = [0, 0, 0, 0, 0, 0, 0, 0, 0, 0, 0, 0, 0, 0\n0, 3, 0, 0, 0, 0]"] ;
591 -> 593 ;
594 [label="X[8] <= 5.5\ngini = 0.519\nsamples = 508\nvalue = [0, 0, 0, 0, 0, 0, 0, 0, 0, 0, 0, 0, 0, 10\n0, 253, 245, 0, 0, 0]"] ;
528 -> 594 ;
595 [label="X[8] <= 3.5\ngini = 0.5\nsamples = 491\nvalue = [0, 0, 0, 0, 0, 0, 0, 0, 0, 0, 0, 0, 0, 0\n0, 253, 238, 0, 0, 0]"] ;
594 -> 595 ;
596 [label="X[7] <= 2.5\ngini = 0.5\nsamples = 324\nvalue = [0, 0, 0, 0, 0, 0, 0, 0, 0, 0, 0, 0, 0, 0\n0, 157, 167, 0, 0, 0]"] ;
595 -> 596 ;
597 [label="X[9] <= 2.5\ngini = 0.435\nsamples = 25\nvalue = [0, 0, 0, 0, 0, 0, 0, 0, 0, 0, 0, 0, 0, 0\n0, 17, 8, 0, 0, 0]"] ;
596 -> 597 ;
598 [label="gini = 0.444\nsamples = 15\nvalue = [0, 0, 0, 0, 0, 0, 0, 0, 0, 0, 0, 0, 0, 0\n0, 10, 5, 0, 0, 0]"] ;
597 -> 598 ;
599 [label="gini = 0.42\nsamples = 10\nvalue = [0, 0, 0, 0, 0, 0, 0, 0, 0, 0, 0, 0, 0, 0\n0, 7, 3, 0, 0, 0]"] ;
597 -> 599 ;
600 [label="X[2] <= 0.5\ngini = 0.498\nsamples = 299\nvalue = [0, 0, 0, 0, 0, 0, 0, 0, 0, 0, 0, 0, 0, 0\n0, 140, 159, 0, 0, 0]"] ;
596 -> 600 ;
601 [label="X[10] <= 2.5\ngini = 0.499\nsamples = 277\nvalue = [0, 0, 0, 0, 0, 0, 0, 0, 0, 0, 0, 0, 0, 0\n0, 132, 145, 0, 0, 0]"] ;
600 -> 601 ;
602 [label="X[9] <= 1.5\ngini = 0.495\nsamples = 175\nvalue = [0, 0, 0, 0, 0, 0, 0, 0, 0, 0, 0, 0, 0, 0\n0, 79, 96, 0, 0, 0]"] ;
601 -> 602 ;
603 [label="X[8] <= 2.5\ngini = 0.426\nsamples = 13\nvalue = [0, 0, 0, 0, 0, 0, 0, 0, 0, 0, 0, 0, 0, 0\n0, 9, 4, 0, 0, 0]"] ;
602 -> 603 ;
604 [label="X[10] <= 1.5\ngini = 0.5\nsamples = 6\nvalue = [0, 0, 0, 0, 0, 0, 0, 0, 0, 0, 0, 0, 0, 0\n0, 3, 3, 0, 0, 0]"] ;
603 -> 604 ;
605 [label="gini = 0.5\nsamples = 2\nvalue = [0, 0, 0, 0, 0, 0, 0, 0, 0, 0, 0, 0, 0, 0\n0, 1, 1, 0, 0, 0]"] ;
604 -> 605 ;
606 [label="gini = 0.5\nsamples = 4\nvalue = [0, 0, 0, 0, 0, 0, 0, 0, 0, 0, 0, 0, 0, 0\n0, 2, 2, 0, 0, 0]"] ;
604 -> 606 ;
607 [label="X[7] <= 5.5\ngini = 0.245\nsamples = 7\nvalue = [0, 0, 0, 0, 0, 0, 0, 0, 0, 0, 0, 0, 0, 0\n0, 6, 1, 0, 0, 0]"] ;
603 -> 607 ;
608 [label="gini = 0.5\nsamples = 2\nvalue = [0, 0, 0, 0, 0, 0, 0, 0, 0, 0, 0, 0, 0, 0\n0, 1, 1, 0, 0, 0]"] ;
607 -> 608 ;
609 [label="gini = 0.0\nsamples = 5\nvalue = [0, 0, 0, 0, 0, 0, 0, 0, 0, 0, 0, 0, 0, 0\n0, 5, 0, 0, 0, 0]"] ;
607 -> 609 ;
610 [label="X[9] <= 2.5\ngini = 0.491\nsamples = 162\nvalue = [0, 0, 0, 0, 0, 0, 0, 0, 0, 0, 0, 0, 0, 0\n0, 70, 92, 0, 0, 0]"] ;
602 -> 610 ;
611 [label="X[5] <= 4.5\ngini = 0.497\nsamples = 110\nvalue = [0, 0, 0, 0, 0, 0, 0, 0, 0, 0, 0, 0, 0, 0\n0, 51, 59, 0, 0, 0]"] ;
610 -> 611 ;
612 [label="X[10] <= 1.5\ngini = 0.499\nsamples = 62\nvalue = [0, 0, 0, 0, 0, 0, 0, 0, 0, 0, 0, 0, 0, 0\n0, 30, 32, 0, 0, 0]"] ;
611 -> 612 ;
613 [label="gini = 0.49\nsamples = 28\nvalue = [0, 0, 0, 0, 0, 0, 0, 0, 0, 0, 0, 0, 0, 0\n0, 12, 16, 0, 0, 0]"] ;
612 -> 613 ;
614 [label="gini = 0.498\nsamples = 34\nvalue = [0, 0, 0, 0, 0, 0, 0, 0, 0, 0, 0, 0, 0, 0\n0, 18, 16, 0, 0, 0]"] ;
612 -> 614 ;
615 [label="X[7] <= 5.5\ngini = 0.492\nsamples = 48\nvalue = [0, 0, 0, 0, 0, 0, 0, 0, 0, 0, 0, 0, 0, 0\n0, 21, 27, 0, 0, 0]"] ;
611 -> 615 ;
616 [label="gini = 0.472\nsamples = 21\nvalue = [0, 0, 0, 0, 0, 0, 0, 0, 0, 0, 0, 0, 0, 0\n0, 8, 13, 0, 0, 0]"] ;
615 -> 616 ;
617 [label="gini = 0.499\nsamples = 27\nvalue = [0, 0, 0, 0, 0, 0, 0, 0, 0, 0, 0, 0, 0, 0\n0, 13, 14, 0, 0, 0]"] ;
615 -> 617 ;
618 [label="X[7] <= 5.5\ngini = 0.464\nsamples = 52\nvalue = [0, 0, 0, 0, 0, 0, 0, 0, 0, 0, 0, 0, 0, 0\n0, 19, 33, 0, 0, 0]"] ;
610 -> 618 ;
619 [label="X[5] <= 4.5\ngini = 0.451\nsamples = 32\nvalue = [0, 0, 0, 0, 0, 0, 0, 0, 0, 0, 0, 0, 0, 0\n0, 11, 21, 0, 0, 0]"] ;
618 -> 619 ;
620 [label="gini = 0.473\nsamples = 13\nvalue = [0, 0, 0, 0, 0, 0, 0, 0, 0, 0, 0, 0, 0, 0\n0, 5, 8, 0, 0, 0]"] ;
619 -> 620 ;
621 [label="gini = 0.432\nsamples = 19\nvalue = [0, 0, 0, 0, 0, 0, 0, 0, 0, 0, 0, 0, 0, 0\n0, 6, 13, 0, 0, 0]"] ;
619 -> 621 ;
622 [label="X[8] <= 2.5\ngini = 0.48\nsamples = 20\nvalue = [0, 0, 0, 0, 0, 0, 0, 0, 0, 0, 0, 0, 0, 0\n0, 8, 12, 0, 0, 0]"] ;
618 -> 622 ;
623 [label="gini = 0.494\nsamples = 9\nvalue = [0, 0, 0, 0, 0, 0, 0, 0, 0, 0, 0, 0, 0, 0\n0, 4, 5, 0, 0, 0]"] ;
622 -> 623 ;
624 [label="gini = 0.463\nsamples = 11\nvalue = [0, 0, 0, 0, 0, 0, 0, 0, 0, 0, 0, 0, 0, 0\n0, 4, 7, 0, 0, 0]"] ;
622 -> 624 ;
625 [label="X[9] <= 1.5\ngini = 0.499\nsamples = 102\nvalue = [0, 0, 0, 0, 0, 0, 0, 0, 0, 0, 0, 0, 0, 0\n0, 53, 49, 0, 0, 0]"] ;
601 -> 625 ;
626 [label="X[8] <= 2.5\ngini = 0.32\nsamples = 5\nvalue = [0, 0, 0, 0, 0, 0, 0, 0, 0, 0, 0, 0, 0, 0\n0, 1, 4, 0, 0, 0]"] ;
625 -> 626 ;
627 [label="gini = 0.0\nsamples = 1\nvalue = [0, 0, 0, 0, 0, 0, 0, 0, 0, 0, 0, 0, 0, 0\n0, 0, 1, 0, 0, 0]"] ;
626 -> 627 ;
628 [label="gini = 0.375\nsamples = 4\nvalue = [0, 0, 0, 0, 0, 0, 0, 0, 0, 0, 0, 0, 0, 0\n0, 1, 3, 0, 0, 0]"] ;
626 -> 628 ;
629 [label="X[9] <= 2.5\ngini = 0.497\nsamples = 97\nvalue = [0, 0, 0, 0, 0, 0, 0, 0, 0, 0, 0, 0, 0, 0\n0, 52, 45, 0, 0, 0]"] ;
625 -> 629 ;
630 [label="X[8] <= 2.5\ngini = 0.5\nsamples = 59\nvalue = [0, 0, 0, 0, 0, 0, 0, 0, 0, 0, 0, 0, 0, 0\n0, 29, 30, 0, 0, 0]"] ;
629 -> 630 ;
631 [label="X[7] <= 3.5\ngini = 0.5\nsamples = 42\nvalue = [0, 0, 0, 0, 0, 0, 0, 0, 0, 0, 0, 0, 0, 0\n0, 21, 21, 0, 0, 0]"] ;
630 -> 631 ;
632 [label="gini = 0.499\nsamples = 21\nvalue = [0, 0, 0, 0, 0, 0, 0, 0, 0, 0, 0, 0, 0, 0\n0, 10, 11, 0, 0, 0]"] ;
631 -> 632 ;
633 [label="gini = 0.499\nsamples = 21\nvalue = [0, 0, 0, 0, 0, 0, 0, 0, 0, 0, 0, 0, 0, 0\n0, 11, 10, 0, 0, 0]"] ;
631 -> 633 ;
634 [label="gini = 0.498\nsamples = 17\nvalue = [0, 0, 0, 0, 0, 0, 0, 0, 0, 0, 0, 0, 0, 0\n0, 8, 9, 0, 0, 0]"] ;
630 -> 634 ;
635 [label="X[5] <= 4.5\ngini = 0.478\nsamples = 38\nvalue = [0, 0, 0, 0, 0, 0, 0, 0, 0, 0, 0, 0, 0, 0\n0, 23, 15, 0, 0, 0]"] ;
629 -> 635 ;
636 [label="gini = 0.444\nsamples = 9\nvalue = [0, 0, 0, 0, 0, 0, 0, 0, 0, 0, 0, 0, 0, 0\n0, 6, 3, 0, 0, 0]"] ;
635 -> 636 ;
637 [label="X[10] <= 3.5\ngini = 0.485\nsamples = 29\nvalue = [0, 0, 0, 0, 0, 0, 0, 0, 0, 0, 0, 0, 0, 0\n0, 17, 12, 0, 0, 0]"] ;
635 -> 637 ;
638 [label="gini = 0.494\nsamples = 18\nvalue = [0, 0, 0, 0, 0, 0, 0, 0, 0, 0, 0, 0, 0, 0\n0, 10, 8, 0, 0, 0]"] ;
637 -> 638 ;
639 [label="gini = 0.463\nsamples = 11\nvalue = [0, 0, 0, 0, 0, 0, 0, 0, 0, 0, 0, 0, 0, 0\n0, 7, 4, 0, 0, 0]"] ;
637 -> 639 ;
640 [label="X[9] <= 1.5\ngini = 0.463\nsamples = 22\nvalue = [0, 0, 0, 0, 0, 0, 0, 0, 0, 0, 0, 0, 0, 0\n0, 8, 14, 0, 0, 0]"] ;
600 -> 640 ;
641 [label="gini = 0.0\nsamples = 1\nvalue = [0, 0, 0, 0, 0, 0, 0, 0, 0, 0, 0, 0, 0, 0\n0, 1, 0, 0, 0, 0]"] ;
640 -> 641 ;
642 [label="X[9] <= 2.5\ngini = 0.444\nsamples = 21\nvalue = [0, 0, 0, 0, 0, 0, 0, 0, 0, 0, 0, 0, 0, 0\n0, 7, 14, 0, 0, 0]"] ;
640 -> 642 ;
643 [label="gini = 0.408\nsamples = 14\nvalue = [0, 0, 0, 0, 0, 0, 0, 0, 0, 0, 0, 0, 0, 0\n0, 4, 10, 0, 0, 0]"] ;
642 -> 643 ;
644 [label="gini = 0.49\nsamples = 7\nvalue = [0, 0, 0, 0, 0, 0, 0, 0, 0, 0, 0, 0, 0, 0\n0, 3, 4, 0, 0, 0]"] ;
642 -> 644 ;
645 [label="X[10] <= 2.5\ngini = 0.489\nsamples = 167\nvalue = [0, 0, 0, 0, 0, 0, 0, 0, 0, 0, 0, 0, 0, 0\n0, 96, 71, 0, 0, 0]"] ;
595 -> 645 ;
646 [label="X[10] <= 1.5\ngini = 0.494\nsamples = 143\nvalue = [0, 0, 0, 0, 0, 0, 0, 0, 0, 0, 0, 0, 0, 0\n0, 79, 64, 0, 0, 0]"] ;
645 -> 646 ;
647 [label="X[9] <= 1.5\ngini = 0.491\nsamples = 83\nvalue = [0, 0, 0, 0, 0, 0, 0, 0, 0, 0, 0, 0, 0, 0\n0, 47, 36, 0, 0, 0]"] ;
646 -> 647 ;
648 [label="gini = 0.0\nsamples = 1\nvalue = [0, 0, 0, 0, 0, 0, 0, 0, 0, 0, 0, 0, 0, 0\n0, 1, 0, 0, 0, 0]"] ;
647 -> 648 ;
649 [label="X[9] <= 2.5\ngini = 0.493\nsamples = 82\nvalue = [0, 0, 0, 0, 0, 0, 0, 0, 0, 0, 0, 0, 0, 0\n0, 46, 36, 0, 0, 0]"] ;
647 -> 649 ;
650 [label="X[5] <= 2.5\ngini = 0.497\nsamples = 54\nvalue = [0, 0, 0, 0, 0, 0, 0, 0, 0, 0, 0, 0, 0, 0\n0, 29, 25, 0, 0, 0]"] ;
649 -> 650 ;
651 [label="gini = 0.499\nsamples = 31\nvalue = [0, 0, 0, 0, 0, 0, 0, 0, 0, 0, 0, 0, 0, 0\n0, 16, 15, 0, 0, 0]"] ;
650 -> 651 ;
652 [label="gini = 0.491\nsamples = 23\nvalue = [0, 0, 0, 0, 0, 0, 0, 0, 0, 0, 0, 0, 0, 0\n0, 13, 10, 0, 0, 0]"] ;
650 -> 652 ;
653 [label="X[8] <= 4.5\ngini = 0.477\nsamples = 28\nvalue = [0, 0, 0, 0, 0, 0, 0, 0, 0, 0, 0, 0, 0, 0\n0, 17, 11, 0, 0, 0]"] ;
649 -> 653 ;
654 [label="gini = 0.48\nsamples = 10\nvalue = [0, 0, 0, 0, 0, 0, 0, 0, 0, 0, 0, 0, 0, 0\n0, 6, 4, 0, 0, 0]"] ;
653 -> 654 ;
655 [label="gini = 0.475\nsamples = 18\nvalue = [0, 0, 0, 0, 0, 0, 0, 0, 0, 0, 0, 0, 0, 0\n0, 11, 7, 0, 0, 0]"] ;
653 -> 655 ;
656 [label="X[9] <= 1.5\ngini = 0.498\nsamples = 60\nvalue = [0, 0, 0, 0, 0, 0, 0, 0, 0, 0, 0, 0, 0, 0\n0, 32, 28, 0, 0, 0]"] ;
646 -> 656 ;
657 [label="gini = 0.444\nsamples = 3\nvalue = [0, 0, 0, 0, 0, 0, 0, 0, 0, 0, 0, 0, 0, 0\n0, 1, 2, 0, 0, 0]"] ;
656 -> 657 ;
658 [label="X[9] <= 2.5\ngini = 0.496\nsamples = 57\nvalue = [0, 0, 0, 0, 0, 0, 0, 0, 0, 0, 0, 0, 0, 0\n0, 31, 26, 0, 0, 0]"] ;
656 -> 658 ;
659 [label="X[2] <= 0.5\ngini = 0.489\nsamples = 40\nvalue = [0, 0, 0, 0, 0, 0, 0, 0, 0, 0, 0, 0, 0, 0\n0, 23, 17, 0, 0, 0]"] ;
658 -> 659 ;
660 [label="gini = 0.483\nsamples = 22\nvalue = [0, 0, 0, 0, 0, 0, 0, 0, 0, 0, 0, 0, 0, 0\n0, 13, 9, 0, 0, 0]"] ;
659 -> 660 ;
661 [label="gini = 0.494\nsamples = 18\nvalue = [0, 0, 0, 0, 0, 0, 0, 0, 0, 0, 0, 0, 0, 0\n0, 10, 8, 0, 0, 0]"] ;
659 -> 661 ;
662 [label="X[5] <= 2.5\ngini = 0.498\nsamples = 17\nvalue = [0, 0, 0, 0, 0, 0, 0, 0, 0, 0, 0, 0, 0, 0\n0, 8, 9, 0, 0, 0]"] ;
658 -> 662 ;
663 [label="gini = 0.5\nsamples = 6\nvalue = [0, 0, 0, 0, 0, 0, 0, 0, 0, 0, 0, 0, 0, 0\n0, 3, 3, 0, 0, 0]"] ;
662 -> 663 ;
664 [label="gini = 0.496\nsamples = 11\nvalue = [0, 0, 0, 0, 0, 0, 0, 0, 0, 0, 0, 0, 0, 0\n0, 5, 6, 0, 0, 0]"] ;
662 -> 664 ;
665 [label="X[9] <= 2.5\ngini = 0.413\nsamples = 24\nvalue = [0, 0, 0, 0, 0, 0, 0, 0, 0, 0, 0, 0, 0, 0\n0, 17, 7, 0, 0, 0]"] ;
645 -> 665 ;
666 [label="gini = 0.36\nsamples = 17\nvalue = [0, 0, 0, 0, 0, 0, 0, 0, 0, 0, 0, 0, 0, 0\n0, 13, 4, 0, 0, 0]"] ;
665 -> 666 ;
667 [label="gini = 0.49\nsamples = 7\nvalue = [0, 0, 0, 0, 0, 0, 0, 0, 0, 0, 0, 0, 0, 0\n0, 4, 3, 0, 0, 0]"] ;
665 -> 667 ;
668 [label="X[9] <= 2.5\ngini = 0.484\nsamples = 17\nvalue = [0, 0, 0, 0, 0, 0, 0, 0, 0, 0, 0, 0, 0, 10\n0, 0, 7, 0, 0, 0]"] ;
594 -> 668 ;
669 [label="gini = 0.49\nsamples = 14\nvalue = [0, 0, 0, 0, 0, 0, 0, 0, 0, 0, 0, 0, 0, 8\n0, 0, 6, 0, 0, 0]"] ;
668 -> 669 ;
670 [label="gini = 0.444\nsamples = 3\nvalue = [0, 0, 0, 0, 0, 0, 0, 0, 0, 0, 0, 0, 0, 2\n0, 0, 1, 0, 0, 0]"] ;
668 -> 670 ;
671 [label="X[10] <= 2.5\ngini = 0.663\nsamples = 455\nvalue = [0, 0, 0, 0, 0, 0, 0, 0, 0, 0, 0, 0, 13, 57\n39, 123, 223, 0, 0, 0]"] ;
527 -> 671 ;
672 [label="X[8] <= 3.5\ngini = 0.669\nsamples = 176\nvalue = [0, 0, 0, 0, 0, 0, 0, 0, 0, 0, 0, 0, 13, 41\n39, 0, 83, 0, 0, 0]"] ;
671 -> 672 ;
673 [label="X[8] <= 2.5\ngini = 0.5\nsamples = 79\nvalue = [0, 0, 0, 0, 0, 0, 0, 0, 0, 0, 0, 0, 0, 0\n39, 0, 40, 0, 0, 0]"] ;
672 -> 673 ;
674 [label="X[9] <= 1.5\ngini = 0.488\nsamples = 38\nvalue = [0, 0, 0, 0, 0, 0, 0, 0, 0, 0, 0, 0, 0, 0\n22, 0, 16, 0, 0, 0]"] ;
673 -> 674 ;
675 [label="gini = 0.0\nsamples = 2\nvalue = [0, 0, 0, 0, 0, 0, 0, 0, 0, 0, 0, 0, 0, 0\n2, 0, 0, 0, 0, 0]"] ;
674 -> 675 ;
676 [label="X[9] <= 2.5\ngini = 0.494\nsamples = 36\nvalue = [0, 0, 0, 0, 0, 0, 0, 0, 0, 0, 0, 0, 0, 0\n20, 0, 16, 0, 0, 0]"] ;
674 -> 676 ;
677 [label="gini = 0.496\nsamples = 22\nvalue = [0, 0, 0, 0, 0, 0, 0, 0, 0, 0, 0, 0, 0, 0\n12, 0, 10, 0, 0, 0]"] ;
676 -> 677 ;
678 [label="gini = 0.49\nsamples = 14\nvalue = [0, 0, 0, 0, 0, 0, 0, 0, 0, 0, 0, 0, 0, 0\n8, 0, 6, 0, 0, 0]"] ;
676 -> 678 ;
679 [label="X[9] <= 1.5\ngini = 0.485\nsamples = 41\nvalue = [0, 0, 0, 0, 0, 0, 0, 0, 0, 0, 0, 0, 0, 0\n17, 0, 24, 0, 0, 0]"] ;
673 -> 679 ;
680 [label="gini = 0.0\nsamples = 1\nvalue = [0, 0, 0, 0, 0, 0, 0, 0, 0, 0, 0, 0, 0, 0\n0, 0, 1, 0, 0, 0]"] ;
679 -> 680 ;
681 [label="X[9] <= 2.5\ngini = 0.489\nsamples = 40\nvalue = [0, 0, 0, 0, 0, 0, 0, 0, 0, 0, 0, 0, 0, 0\n17, 0, 23, 0, 0, 0]"] ;
679 -> 681 ;
682 [label="gini = 0.49\nsamples = 28\nvalue = [0, 0, 0, 0, 0, 0, 0, 0, 0, 0, 0, 0, 0, 0\n12, 0, 16, 0, 0, 0]"] ;
681 -> 682 ;
683 [label="gini = 0.486\nsamples = 12\nvalue = [0, 0, 0, 0, 0, 0, 0, 0, 0, 0, 0, 0, 0, 0\n5, 0, 7, 0, 0, 0]"] ;
681 -> 683 ;
684 [label="X[5] <= 2.5\ngini = 0.607\nsamples = 97\nvalue = [0, 0, 0, 0, 0, 0, 0, 0, 0, 0, 0, 0, 13, 41\n0, 0, 43, 0, 0, 0]"] ;
672 -> 684 ;
685 [label="X[9] <= 2.5\ngini = 0.483\nsamples = 22\nvalue = [0, 0, 0, 0, 0, 0, 0, 0, 0, 0, 0, 0, 13, 0\n0, 0, 9, 0, 0, 0]"] ;
684 -> 685 ;
686 [label="gini = 0.498\nsamples = 15\nvalue = [0, 0, 0, 0, 0, 0, 0, 0, 0, 0, 0, 0, 7, 0\n0, 0, 8, 0, 0, 0]"] ;
685 -> 686 ;
687 [label="gini = 0.245\nsamples = 7\nvalue = [0, 0, 0, 0, 0, 0, 0, 0, 0, 0, 0, 0, 6, 0\n0, 0, 1, 0, 0, 0]"] ;
685 -> 687 ;
688 [label="X[9] <= 1.5\ngini = 0.496\nsamples = 75\nvalue = [0, 0, 0, 0, 0, 0, 0, 0, 0, 0, 0, 0, 0, 41\n0, 0, 34, 0, 0, 0]"] ;
684 -> 688 ;
689 [label="gini = 0.0\nsamples = 4\nvalue = [0, 0, 0, 0, 0, 0, 0, 0, 0, 0, 0, 0, 0, 4\n0, 0, 0, 0, 0, 0]"] ;
688 -> 689 ;
690 [label="X[9] <= 2.5\ngini = 0.499\nsamples = 71\nvalue = [0, 0, 0, 0, 0, 0, 0, 0, 0, 0, 0, 0, 0, 37\n0, 0, 34, 0, 0, 0]"] ;
688 -> 690 ;
691 [label="X[8] <= 4.5\ngini = 0.496\nsamples = 46\nvalue = [0, 0, 0, 0, 0, 0, 0, 0, 0, 0, 0, 0, 0, 21\n0, 0, 25, 0, 0, 0]"] ;
690 -> 691 ;
692 [label="gini = 0.497\nsamples = 24\nvalue = [0, 0, 0, 0, 0, 0, 0, 0, 0, 0, 0, 0, 0, 13\n0, 0, 11, 0, 0, 0]"] ;
691 -> 692 ;
693 [label="gini = 0.463\nsamples = 22\nvalue = [0, 0, 0, 0, 0, 0, 0, 0, 0, 0, 0, 0, 0, 8\n0, 0, 14, 0, 0, 0]"] ;
691 -> 693 ;
694 [label="X[8] <= 4.5\ngini = 0.461\nsamples = 25\nvalue = [0, 0, 0, 0, 0, 0, 0, 0, 0, 0, 0, 0, 0, 16\n0, 0, 9, 0, 0, 0]"] ;
690 -> 694 ;
695 [label="gini = 0.497\nsamples = 13\nvalue = [0, 0, 0, 0, 0, 0, 0, 0, 0, 0, 0, 0, 0, 7\n0, 0, 6, 0, 0, 0]"] ;
694 -> 695 ;
696 [label="gini = 0.375\nsamples = 12\nvalue = [0, 0, 0, 0, 0, 0, 0, 0, 0, 0, 0, 0, 0, 9\n0, 0, 3, 0, 0, 0]"] ;
694 -> 696 ;
697 [label="X[2] <= 0.5\ngini = 0.551\nsamples = 279\nvalue = [0, 0, 0, 0, 0, 0, 0, 0, 0, 0, 0, 0, 0, 16\n0, 123, 140, 0, 0, 0]"] ;
671 -> 697 ;
698 [label="X[10] <= 3.5\ngini = 0.5\nsamples = 221\nvalue = [0, 0, 0, 0, 0, 0, 0, 0, 0, 0, 0, 0, 0, 0\n0, 112, 109, 0, 0, 0]"] ;
697 -> 698 ;
699 [label="X[9] <= 2.5\ngini = 0.497\nsamples = 112\nvalue = [0, 0, 0, 0, 0, 0, 0, 0, 0, 0, 0, 0, 0, 0\n0, 52, 60, 0, 0, 0]"] ;
698 -> 699 ;
700 [label="X[8] <= 2.5\ngini = 0.486\nsamples = 79\nvalue = [0, 0, 0, 0, 0, 0, 0, 0, 0, 0, 0, 0, 0, 0\n0, 33, 46, 0, 0, 0]"] ;
699 -> 700 ;
701 [label="X[9] <= 1.5\ngini = 0.408\nsamples = 28\nvalue = [0, 0, 0, 0, 0, 0, 0, 0, 0, 0, 0, 0, 0, 0\n0, 8, 20, 0, 0, 0]"] ;
700 -> 701 ;
702 [label="gini = 0.48\nsamples = 5\nvalue = [0, 0, 0, 0, 0, 0, 0, 0, 0, 0, 0, 0, 0, 0\n0, 2, 3, 0, 0, 0]"] ;
701 -> 702 ;
703 [label="gini = 0.386\nsamples = 23\nvalue = [0, 0, 0, 0, 0, 0, 0, 0, 0, 0, 0, 0, 0, 0\n0, 6, 17, 0, 0, 0]"] ;
701 -> 703 ;
704 [label="X[9] <= 1.5\ngini = 0.5\nsamples = 51\nvalue = [0, 0, 0, 0, 0, 0, 0, 0, 0, 0, 0, 0, 0, 0\n0, 25, 26, 0, 0, 0]"] ;
700 -> 704 ;
705 [label="gini = 0.0\nsamples = 1\nvalue = [0, 0, 0, 0, 0, 0, 0, 0, 0, 0, 0, 0, 0, 0\n0, 1, 0, 0, 0, 0]"] ;
704 -> 705 ;
706 [label="X[8] <= 3.5\ngini = 0.499\nsamples = 50\nvalue = [0, 0, 0, 0, 0, 0, 0, 0, 0, 0, 0, 0, 0, 0\n0, 24, 26, 0, 0, 0]"] ;
704 -> 706 ;
707 [label="gini = 0.5\nsamples = 20\nvalue = [0, 0, 0, 0, 0, 0, 0, 0, 0, 0, 0, 0, 0, 0\n0, 10, 10, 0, 0, 0]"] ;
706 -> 707 ;
708 [label="gini = 0.498\nsamples = 30\nvalue = [0, 0, 0, 0, 0, 0, 0, 0, 0, 0, 0, 0, 0, 0\n0, 14, 16, 0, 0, 0]"] ;
706 -> 708 ;
709 [label="X[5] <= 4.5\ngini = 0.489\nsamples = 33\nvalue = [0, 0, 0, 0, 0, 0, 0, 0, 0, 0, 0, 0, 0, 0\n0, 19, 14, 0, 0, 0]"] ;
699 -> 709 ;
710 [label="gini = 0.496\nsamples = 11\nvalue = [0, 0, 0, 0, 0, 0, 0, 0, 0, 0, 0, 0, 0, 0\n0, 6, 5, 0, 0, 0]"] ;
709 -> 710 ;
711 [label="X[5] <= 5.5\ngini = 0.483\nsamples = 22\nvalue = [0, 0, 0, 0, 0, 0, 0, 0, 0, 0, 0, 0, 0, 0\n0, 13, 9, 0, 0, 0]"] ;
709 -> 711 ;
712 [label="gini = 0.469\nsamples = 8\nvalue = [0, 0, 0, 0, 0, 0, 0, 0, 0, 0, 0, 0, 0, 0\n0, 5, 3, 0, 0, 0]"] ;
711 -> 712 ;
713 [label="gini = 0.49\nsamples = 14\nvalue = [0, 0, 0, 0, 0, 0, 0, 0, 0, 0, 0, 0, 0, 0\n0, 8, 6, 0, 0, 0]"] ;
711 -> 713 ;
714 [label="X[10] <= 4.5\ngini = 0.495\nsamples = 109\nvalue = [0, 0, 0, 0, 0, 0, 0, 0, 0, 0, 0, 0, 0, 0\n0, 60, 49, 0, 0, 0]"] ;
698 -> 714 ;
715 [label="X[9] <= 2.5\ngini = 0.484\nsamples = 73\nvalue = [0, 0, 0, 0, 0, 0, 0, 0, 0, 0, 0, 0, 0, 0\n0, 43, 30, 0, 0, 0]"] ;
714 -> 715 ;
716 [label="X[8] <= 2.5\ngini = 0.464\nsamples = 52\nvalue = [0, 0, 0, 0, 0, 0, 0, 0, 0, 0, 0, 0, 0, 0\n0, 33, 19, 0, 0, 0]"] ;
715 -> 716 ;
717 [label="X[9] <= 1.5\ngini = 0.48\nsamples = 25\nvalue = [0, 0, 0, 0, 0, 0, 0, 0, 0, 0, 0, 0, 0, 0\n0, 15, 10, 0, 0, 0]"] ;
716 -> 717 ;
718 [label="gini = 0.32\nsamples = 5\nvalue = [0, 0, 0, 0, 0, 0, 0, 0, 0, 0, 0, 0, 0, 0\n0, 4, 1, 0, 0, 0]"] ;
717 -> 718 ;
719 [label="gini = 0.495\nsamples = 20\nvalue = [0, 0, 0, 0, 0, 0, 0, 0, 0, 0, 0, 0, 0, 0\n0, 11, 9, 0, 0, 0]"] ;
717 -> 719 ;
720 [label="X[9] <= 1.5\ngini = 0.444\nsamples = 27\nvalue = [0, 0, 0, 0, 0, 0, 0, 0, 0, 0, 0, 0, 0, 0\n0, 18, 9, 0, 0, 0]"] ;
716 -> 720 ;
721 [label="gini = 0.0\nsamples = 1\nvalue = [0, 0, 0, 0, 0, 0, 0, 0, 0, 0, 0, 0, 0, 0\n0, 0, 1, 0, 0, 0]"] ;
720 -> 721 ;
722 [label="gini = 0.426\nsamples = 26\nvalue = [0, 0, 0, 0, 0, 0, 0, 0, 0, 0, 0, 0, 0, 0\n0, 18, 8, 0, 0, 0]"] ;
720 -> 722 ;
723 [label="X[8] <= 2.5\ngini = 0.499\nsamples = 21\nvalue = [0, 0, 0, 0, 0, 0, 0, 0, 0, 0, 0, 0, 0, 0\n0, 10, 11, 0, 0, 0]"] ;
715 -> 723 ;
724 [label="gini = 0.49\nsamples = 7\nvalue = [0, 0, 0, 0, 0, 0, 0, 0, 0, 0, 0, 0, 0, 0\n0, 4, 3, 0, 0, 0]"] ;
723 -> 724 ;
725 [label="gini = 0.49\nsamples = 14\nvalue = [0, 0, 0, 0, 0, 0, 0, 0, 0, 0, 0, 0, 0, 0\n0, 6, 8, 0, 0, 0]"] ;
723 -> 725 ;
726 [label="X[9] <= 2.5\ngini = 0.498\nsamples = 36\nvalue = [0, 0, 0, 0, 0, 0, 0, 0, 0, 0, 0, 0, 0, 0\n0, 17, 19, 0, 0, 0]"] ;
714 -> 726 ;
727 [label="X[9] <= 1.5\ngini = 0.486\nsamples = 24\nvalue = [0, 0, 0, 0, 0, 0, 0, 0, 0, 0, 0, 0, 0, 0\n0, 10, 14, 0, 0, 0]"] ;
726 -> 727 ;
728 [label="gini = 0.444\nsamples = 3\nvalue = [0, 0, 0, 0, 0, 0, 0, 0, 0, 0, 0, 0, 0, 0\n0, 2, 1, 0, 0, 0]"] ;
727 -> 728 ;
729 [label="gini = 0.472\nsamples = 21\nvalue = [0, 0, 0, 0, 0, 0, 0, 0, 0, 0, 0, 0, 0, 0\n0, 8, 13, 0, 0, 0]"] ;
727 -> 729 ;
730 [label="gini = 0.486\nsamples = 12\nvalue = [0, 0, 0, 0, 0, 0, 0, 0, 0, 0, 0, 0, 0, 0\n0, 7, 5, 0, 0, 0]"] ;
726 -> 730 ;
731 [label="X[10] <= 4.5\ngini = 0.602\nsamples = 58\nvalue = [0, 0, 0, 0, 0, 0, 0, 0, 0, 0, 0, 0, 0, 16\n0, 11, 31, 0, 0, 0]"] ;
697 -> 731 ;
732 [label="X[9] <= 1.5\ngini = 0.483\nsamples = 27\nvalue = [0, 0, 0, 0, 0, 0, 0, 0, 0, 0, 0, 0, 0, 16\n0, 0, 11, 0, 0, 0]"] ;
731 -> 732 ;
733 [label="gini = 0.0\nsamples = 1\nvalue = [0, 0, 0, 0, 0, 0, 0, 0, 0, 0, 0, 0, 0, 0\n0, 0, 1, 0, 0, 0]"] ;
732 -> 733 ;
734 [label="X[7] <= 4.5\ngini = 0.473\nsamples = 26\nvalue = [0, 0, 0, 0, 0, 0, 0, 0, 0, 0, 0, 0, 0, 16\n0, 0, 10, 0, 0, 0]"] ;
732 -> 734 ;
735 [label="X[9] <= 2.5\ngini = 0.444\nsamples = 15\nvalue = [0, 0, 0, 0, 0, 0, 0, 0, 0, 0, 0, 0, 0, 10\n0, 0, 5, 0, 0, 0]"] ;
734 -> 735 ;
736 [label="gini = 0.48\nsamples = 10\nvalue = [0, 0, 0, 0, 0, 0, 0, 0, 0, 0, 0, 0, 0, 6\n0, 0, 4, 0, 0, 0]"] ;
735 -> 736 ;
737 [label="gini = 0.32\nsamples = 5\nvalue = [0, 0, 0, 0, 0, 0, 0, 0, 0, 0, 0, 0, 0, 4\n0, 0, 1, 0, 0, 0]"] ;
735 -> 737 ;
738 [label="X[9] <= 2.5\ngini = 0.496\nsamples = 11\nvalue = [0, 0, 0, 0, 0, 0, 0, 0, 0, 0, 0, 0, 0, 6\n0, 0, 5, 0, 0, 0]"] ;
734 -> 738 ;
739 [label="gini = 0.48\nsamples = 10\nvalue = [0, 0, 0, 0, 0, 0, 0, 0, 0, 0, 0, 0, 0, 6\n0, 0, 4, 0, 0, 0]"] ;
738 -> 739 ;
740 [label="gini = 0.0\nsamples = 1\nvalue = [0, 0, 0, 0, 0, 0, 0, 0, 0, 0, 0, 0, 0, 0\n0, 0, 1, 0, 0, 0]"] ;
738 -> 740 ;
741 [label="X[9] <= 2.5\ngini = 0.458\nsamples = 31\nvalue = [0, 0, 0, 0, 0, 0, 0, 0, 0, 0, 0, 0, 0, 0\n0, 11, 20, 0, 0, 0]"] ;
731 -> 741 ;
742 [label="X[9] <= 1.5\ngini = 0.483\nsamples = 27\nvalue = [0, 0, 0, 0, 0, 0, 0, 0, 0, 0, 0, 0, 0, 0\n0, 11, 16, 0, 0, 0]"] ;
741 -> 742 ;
743 [label="X[5] <= 5.5\ngini = 0.444\nsamples = 3\nvalue = [0, 0, 0, 0, 0, 0, 0, 0, 0, 0, 0, 0, 0, 0\n0, 2, 1, 0, 0, 0]"] ;
742 -> 743 ;
744 [label="gini = 0.5\nsamples = 2\nvalue = [0, 0, 0, 0, 0, 0, 0, 0, 0, 0, 0, 0, 0, 0\n0, 1, 1, 0, 0, 0]"] ;
743 -> 744 ;
745 [label="gini = 0.0\nsamples = 1\nvalue = [0, 0, 0, 0, 0, 0, 0, 0, 0, 0, 0, 0, 0, 0\n0, 1, 0, 0, 0, 0]"] ;
743 -> 745 ;
746 [label="X[5] <= 5.5\ngini = 0.469\nsamples = 24\nvalue = [0, 0, 0, 0, 0, 0, 0, 0, 0, 0, 0, 0, 0, 0\n0, 9, 15, 0, 0, 0]"] ;
742 -> 746 ;
747 [label="gini = 0.497\nsamples = 13\nvalue = [0, 0, 0, 0, 0, 0, 0, 0, 0, 0, 0, 0, 0, 0\n0, 6, 7, 0, 0, 0]"] ;
746 -> 747 ;
748 [label="gini = 0.397\nsamples = 11\nvalue = [0, 0, 0, 0, 0, 0, 0, 0, 0, 0, 0, 0, 0, 0\n0, 3, 8, 0, 0, 0]"] ;
746 -> 748 ;
749 [label="gini = 0.0\nsamples = 4\nvalue = [0, 0, 0, 0, 0, 0, 0, 0, 0, 0, 0, 0, 0, 0\n0, 0, 4, 0, 0, 0]"] ;
741 -> 749 ;
750 [label="X[6] <= 9.5\ngini = 0.381\nsamples = 968\nvalue = [0, 0, 0, 0, 0, 0, 0, 0, 0, 0, 0, 0, 8, 17\n0, 178, 740, 0, 25, 0]"] ;
526 -> 750 ;
751 [label="X[8] <= 4.5\ngini = 0.162\nsamples = 483\nvalue = [0, 0, 0, 0, 0, 0, 0, 0, 0, 0, 0, 0, 0, 17\n0, 0, 441, 0, 25, 0]"] ;
750 -> 751 ;
752 [label="gini = 0.0\nsamples = 409\nvalue = [0, 0, 0, 0, 0, 0, 0, 0, 0, 0, 0, 0, 0, 0\n0, 0, 409, 0, 0, 0]"] ;
751 -> 752 ;
753 [label="X[2] <= 0.5\ngini = 0.646\nsamples = 74\nvalue = [0, 0, 0, 0, 0, 0, 0, 0, 0, 0, 0, 0, 0, 17\n0, 0, 32, 0, 25, 0]"] ;
751 -> 753 ;
